{"net":{"sizes":[64,128,64,64],"act":"relu","t":0,"layers":[{"W":[[0.16512,0.04759,-0.06145,0.07215,0.22818,-0.30808,0.15048,-0.15762,-0.26032,0.11486,-0.03718,0.14526,-0.02706,0.31649,-0.08085,-0.0147,0.19455,-0.23335,-0.0795,-0.08528,0.14185,-0.07447,0.0429,-0.06619,-0.11115,0.06273,0.26484,-0.12744,-0.04344,-0.2445,-0.01635,-0.07638,0.01681,0.29735,-0.02987,0.292,-0.0359,-0.12879,-0.07224,0.00611,-0.01519,0.14671,0.04588,-0.01239,0.37029,-0.25876,-0.10655,-0.30543,-0.01532,0.02746,-0.09665,-0.15059,-0.18183,-0.33957,0.21295,-0.00765,0.09014,0.05193,-0.17663,0.10093,-0.12621,-0.12279,-0.3069,0.44772,0.04413,0.2537,0.08521,-0.39039,0.0272,0.08934,-0.20515,0.20039,0.05512,-0.02471,-0.11971,-0.01026,-0.22573,0.05752,-0.22128,0.05637,-0.27628,0.25151,0.08775,-0.14598,0.20911,-0.05822,0.0467,0.04228,-0.34663,-0.22675,-0.06508,0.02574,-0.12689,0.00081,-0.30543,-0.04143,0.26087,0.14523,0.18353,0.00345,0.0397,0.05083,0.04798,0.22293,0.24521,0.06119,-0.19639,0.05219,-0.03778,-0.09878,-0.03917,-0.00249,-0.36513,0.12469,0.32965,0.15586,-0.08156,0.21939,0.00203,-0.1319,-0.20162,0.18463,-0.06643,-0.23734,-0.04873,0.00314,-0.39111,0.00983],[0.09274,0.26306,0.06463,0.13663,-0.03068,0.17471,0.16272,-0.0343,0.14851,0.26509,-0.35301,-0.22547,0.04139,-0.0148,0.17526,0.08549,-0.03866,0.07857,-0.0126,-0.12965,0.22998,0.29844,-0.07622,-0.09234,0.24052,0.21838,0.0765,0.02026,0.23522,0.093,-0.17226,0.30899,0.09429,0.08416,-0.04053,0.23804,0.07709,-0.01207,0.09511,0.0583,0.12453,-0.07484,0.01678,0.16919,0.17369,-0.00835,-0.13457,-0.0336,0.04686,0.0188,-0.00474,-0.3416,-0.0548,-0.17642,-0.21645,-0.07487,0.56377,-0.03755,-0.06533,0.22735,-0.07721,0.15545,-0.04458,-0.22718,-0.06749,-0.31502,-0.02734,-0.05979,-0.26162,-0.16059,-0.2013,-0.15878,0.05106,0.17589,0.05773,-0.39086,-0.08624,0.0008,0.02497,0.31386,-0.29295,0.0905,-0.16087,-0.10581,0.00793,0.16221,0.01681,-0.33345,0.31815,0.19276,0.17071,0.07029,0.15846,0.17121,-0.0644,-0.14344,-0.10288,-0.00328,-0.01246,-0.1917,-0.12798,-0.0263,-0.089,-0.12103,0.1266,-0.10435,0.13554,-0.2284,0.06274,0.19241,-0.06153,0.00962,0.24562,0.00558,0.09529,-0.00364,-0.15493,0.05869,0.22405,-0.11242,0.12104,0.1516,0.16973,-0.22179,-0.29633,-0.34313,-0.31346,-0.14464],[-0.0947,0.06571,0.25539,-0.4813,-0.00141,0.03199,0.00435,0.01778,0.28394,-0.17434,0.03783,0.01584,-0.26101,0.10133,0.10888,0.36804,-0.11894,-0.04116,0.1286,-0.10603,0.05319,-0.0813,0.36141,-0.07098,-0.15817,-0.11191,0.04431,0.36357,0.07988,-0.13519,0.13583,0.10228,-0.19573,-0.02711,0.17101,0.09209,0.00342,-0.16834,0.24226,0.04171,0.09216,0.18956,-0.02447,0.50735,-0.07326,0.01085,-0.09254,0.0562,0.06839,-0.05249,-0.18147,-0.17753,-0.06579,-0.01945,0.21331,0.23451,0.01511,0.06807,-0.03385,-0.038,0.22669,0.04513,0.32638,-0.03012,-0.0381,0.10526,-0.09373,-0.08243,-0.20238,0.30829,-0.06101,-0.0898,-0.27711,0.2531,-0.0629,0.01436,-0.10172,0.01843,-0.19174,0.14403,-0.00853,-0.13321,0.12979,0.07598,0.08878,0.29459,-0.57927,-0.04627,-0.0808,-0.14226,0.1359,-0.0863,0.14704,-0.22221,0.13824,0.09829,-0.11866,-0.1219,0.19786,-0.04742,-0.06074,0.18375,-0.40846,-0.00061,0.37574,-0.09423,0.05616,-0.01926,0.01765,-0.12592,0.03089,-0.12118,0.17695,-0.1284,0.09907,-0.09125,0.26247,-0.10798,-0.08751,0.26102,-0.23695,-0.01498,-0.16715,-0.20892,-0.09316,0.03768,0.17389,-0.07255],[0.35786,0.01183,-0.3222,0.16054,0.01882,0.16264,-0.10716,-0.14409,0.14449,0.00139,-0.14358,-0.07121,0.05888,0.07053,0.21474,0.08828,-0.08439,0.18248,0.12568,-0.11067,-0.1856,-0.09665,-0.10458,0.01927,0.12133,-0.03768,-0.08624,0.06883,-0.03478,-0.45385,0.12403,-0.0853,-0.1931,-0.12035,0.09198,0.21333,-0.09165,0.09794,0.06338,-0.10001,0.00848,0.09003,-0.27809,0.07174,-0.12363,-0.25397,-0.08658,0.12412,0.12542,-0.19557,-0.34042,0.0498,0.29266,-0.06789,0.25466,-0.33824,-0.00979,0.18178,-0.03542,-0.3171,-0.21967,-0.14875,0.16589,-0.23779,0.01712,-0.16661,-0.006,-0.02035,-0.26022,-0.00514,-0.34064,0.17233,0.0845,-0.10589,-0.12182,-0.02832,0.08505,0.14,-0.05977,-0.19857,0.11774,-0.00437,0.22242,0.19328,0.17027,-0.00472,-0.10904,-0.00251,0.19494,0.03081,0.02945,0.14088,0.01534,0.06339,-0.50329,-0.10343,-0.1358,0.10285,0.03782,0.3586,0.16365,0.28309,0.09269,-0.22933,0.33089,-0.27237,0.28987,-0.33846,-0.00681,-0.05147,0.07705,0.19055,-0.17709,0.05456,-0.23351,0.03463,-0.14938,0.19304,-0.20305,0.23191,-0.09742,-0.10087,0.1779,0.00495,-0.33065,0.03891,0.0666,-0.04426],[0.28046,0.38125,0.23796,0.13433,0.15873,0.12751,-0.13393,0.31271,-0.13482,-0.13393,-0.12482,-0.37204,0.05704,0.08287,-0.19476,0.0444,-0.1748,-0.15316,0.06885,-0.30823,-0.06458,-0.16129,0.26482,-0.19068,0.14381,0.08955,0.01947,0.03118,0.03003,-0.24902,0.19358,-0.1173,0.14233,0.06457,0.08941,-0.02689,-0.10708,-0.16912,0.18943,-0.12929,0.09055,0.14016,-0.10644,0.04295,0.02612,0.21026,0.01979,0.06553,0.10123,-0.0846,0.16397,0.03246,0.12156,-0.05378,0.25954,-0.08536,0.1502,0.16588,0.0294,-0.1259,-0.04425,-0.11447,0.3713,-0.25094,-0.02174,-0.15993,-0.03276,0.10008,-0.04763,-0.15515,0.15262,-0.19546,-0.17513,0.20285,-0.13766,-0.01034,-0.24062,-0.14821,0.03691,0.26188,0.44154,0.04639,-0.16635,-0.12731,0.36438,0.08402,0.08546,0.06149,0.00431,-0.17987,-0.08899,-0.12954,-0.3331,-0.36767,-0.04594,0.05921,0.00974,0.11271,0.01142,0.0718,-0.12682,0.00823,0.19881,-0.12475,0.11283,0.09953,-0.38287,-0.04219,-0.42376,-0.25815,0.20786,0.26349,-0.07414,-0.20039,0.04988,-0.0788,-0.06641,-0.26319,0.31816,0.30338,-0.05746,0.09669,-0.27302,-0.22439,-0.23656,-0.23602,-0.21255,-0.07315],[0.3417,-0.03316,-0.07874,0.05483,-0.22741,-0.20519,-0.01441,-0.20007,-0.02313,0.06393,-0.0547,-0.00763,-0.15154,-0.14648,-0.16382,0.073,-0.05775,0.19775,0.22372,0.04949,0.07902,-0.23467,0.08767,0.1294,0.0142,0.05825,-0.19253,0.01224,-0.04903,-0.12768,-0.07228,-0.11305,-0.07159,0.05799,-0.04358,-0.24165,0.0189,0.07592,-0.18594,-0.08637,0.21379,-0.02193,-0.01855,0.0474,0.21455,-0.29234,0.25271,-0.42809,0.30033,0.24375,0.03557,0.04219,-0.08086,-0.0359,-0.09688,0.22371,-0.01481,-0.10122,-0.13895,-0.08786,0.26164,0.06343,0.16967,-0.06479,-0.50436,0.18463,-0.17264,-0.25834,0.13729,0.03649,-0.20015,-0.02553,-0.23819,0.16708,0.29129,-0.06837,-0.0965,-0.01183,0.25222,0.07556,0.06009,-0.07364,0.06385,0.06808,-0.05958,0.13803,0.40682,0.20306,-0.00407,0.04813,0.04886,-0.04672,-0.24374,-0.0036,-0.06314,-0.04078,0.1857,0.06393,0.12414,0.07813,-0.08421,-0.21091,-0.21728,-0.08532,0.24662,-0.05604,-0.00165,0.03362,-0.26126,0.07938,0.14864,-0.27211,0.12124,0.0732,-0.18567,-0.14867,0.14756,0.02041,-0.18311,-0.14157,0.22281,-0.13851,-0.22553,-0.0187,0.2245,0.24221,0.15125,-0.09526],[-0.0769,-0.16174,-0.04336,0.23595,0.15175,-0.02383,-0.04453,-0.11999,0.11006,0.08815,-0.44968,0.08259,-0.14705,-0.14245,-0.00098,0.02408,0.0986,-0.02619,-0.09498,0.18585,-0.0795,0.31903,0.19376,0.30225,0.175,-0.0672,0.23999,0.04722,-0.19441,0.13636,-0.26722,0.10145,0.03472,-0.02964,0.09731,0.08619,0.45273,-0.14758,0.01742,-0.15026,-0.14557,0.26802,0.07185,-0.04516,0.37616,-0.22553,-0.24702,-0.05324,0.0891,0.02688,-0.23064,-0.26128,0.00375,-0.0955,-0.18304,0.19557,-0.15832,-0.0711,-0.12998,-0.20373,0.26823,-0.0593,0.01,0.24239,0.15494,-0.16006,0.11307,0.16961,0.01226,-0.20333,0.06385,0.17219,0.0187,0.28151,0.11388,-0.03121,-0.0636,0.00196,-0.3171,0.19974,-0.17566,-0.20824,-0.17602,-0.20011,0.33641,-0.04183,0.12325,-0.05089,0.11016,-0.11509,-0.03081,-0.0184,0.15073,0.21122,0.02024,-0.0331,0.08788,-0.12428,0.06228,0.152,0.04445,-0.19398,-0.12544,0.03687,0.05017,0.12799,0.09316,-0.13886,-0.0782,0.28185,-0.15773,-0.0231,-0.0579,0.06236,-0.27635,0.30098,-0.06678,-0.08752,-0.15586,0.01843,0.20521,-0.1137,0.01474,0.01813,-0.06511,-0.08256,-0.00914,0.06362],[0.1795,0.09787,-0.14884,-0.14364,-0.12875,-0.36706,0.11628,0.1275,0.17434,0.21758,-0.08912,0.3093,-0.16211,0.06574,-0.1817,0.13122,0.03417,0.03978,0.07235,-0.24019,0.06217,0.04954,-0.49234,0.37138,0.27961,-0.19513,0.03734,0.0766,0.19303,-0.01007,-0.02722,-0.11031,0.05948,0.07862,-0.10846,-0.18992,0.20611,0.00326,0.02633,0.12742,-0.04639,-0.30073,0.14007,-0.12764,-0.23751,-0.02394,0.19994,-0.02066,0.03362,0.20271,-0.10612,-0.22306,-0.21098,0.03154,0.0088,0.08017,-0.06428,-0.36719,-0.39862,-0.18532,-0.16235,0.15052,-0.27257,-0.38628,-0.1103,-0.1967,-0.41045,-0.01935,0.09758,-0.11933,-0.24612,0.41449,0.05901,0.06414,0.02812,0.12794,-0.14503,-0.01565,0.07786,-0.10147,-0.15575,-0.09398,-0.31924,-0.02767,0.30631,-0.14551,-0.15109,0.08835,-0.16782,0.26213,0.1076,-0.10045,0.09614,0.13889,0.37023,-0.05188,-0.02582,0.02344,0.20242,-0.42373,0.11184,-0.05864,-0.08386,-0.0852,-0.18634,-0.09583,0.39646,0.07604,-0.15351,0.20629,-0.02909,-0.05138,0.13849,0.00686,0.12633,-0.07218,0.0999,0.18579,0.12723,0.08596,0.14573,0.08512,0.05184,-0.13228,0.12465,0.02372,-0.13239,0.14622],[0.25267,0.47167,0.0364,-0.00513,-0.23578,0.27122,0.03076,-0.24022,-0.01836,-0.20427,0.37789,0.11617,-0.05146,-0.21691,0.18678,0.26583,-0.16054,-0.16493,0.12302,-0.11753,-0.00708,0.10838,-0.16623,0.09307,-0.06179,0.18346,-0.12297,0.41145,0.096,0.01428,0.12923,-0.08041,-0.54134,-0.18322,-0.11838,-0.21259,-0.53084,-0.51754,0.28132,0.19484,0.05427,0.06014,0.22693,-0.31676,-0.01228,-0.16784,-0.21782,0.00374,0.08887,0.10248,0.10912,-0.23279,0.42354,-0.33203,0.04896,0.11838,-0.37727,0.10663,0.07151,0.20639,0.35978,-0.07504,0.41644,0.26105,0.00258,-0.11678,0.2093,0.15136,0.19332,0.00925,0.34966,-0.14202,0.03805,0.12026,0.03091,-0.04281,0.12449,0.28442,-0.13015,-0.05601,-0.08268,-0.28798,-0.02728,0.22381,-0.09717,-0.05585,0.37389,-0.17276,0.19258,-0.30694,-0.16076,-0.28975,-0.31442,-0.19923,-0.2113,0.31942,0.07815,0.09045,0.15797,-0.27363,-0.38086,-0.23136,-0.00428,-0.20912,0.06055,-0.12585,-0.0283,0.05759,-0.1337,0.0717,0.0265,0.25212,-0.1243,0.04657,-0.0941,-0.18733,-0.21183,-0.08804,-0.33923,-0.17356,-0.14714,-0.05326,-0.13596,-0.09759,0.03161,-0.23634,0.00847,-0.03501],[0.10877,-0.02396,-0.23884,-0.02579,0.04939,0.20028,-0.1274,0.04664,-0.09921,0.15862,-0.01414,0.00404,-0.04231,-0.02927,-0.20351,-0.16414,-0.17416,-0.10788,-0.11688,0.38114,0.2274,0.34168,-0.1325,0.05936,-0.2109,-0.07455,-0.08301,0.086,-0.06045,0.08001,0.00122,0.17677,0.18396,-0.25003,-0.20643,0.22515,0.05673,-0.13858,0.04056,0.0481,0.334,0.0357,-0.25532,0.188,-0.12827,-0.13741,-0.10532,-0.07581,-0.03099,-0.20708,0.26167,-0.12465,-0.11336,-0.17845,-0.26208,-0.21373,-0.09252,-0.00236,0.13436,-0.25621,-0.27059,0.35251,0.11009,-0.20641,-0.13275,-0.10416,0.38733,-0.03415,-0.27622,-0.32185,0.01362,0.14649,0.05787,-0.07387,0.10672,-0.13755,0.02028,0.00091,0.27518,-0.12974,-0.10434,0.00312,0.11166,-0.10768,-0.09813,0.21479,0.0839,-0.24869,-0.27332,-0.07559,-0.03028,0.09742,0.12846,0.01083,0.07269,0.06597,0.00019,0.06906,-0.05834,-0.1868,-0.24596,-0.14876,0.07448,-0.0359,-0.04362,-0.02636,0.09253,-0.01666,-0.11341,0.23351,0.03973,0.05455,0.13548,-0.22985,-0.18777,-0.10624,0.35263,-0.1194,0.226,0.22611,0.01528,0.10319,0.08881,-0.00992,-0.0004,0.2046,-0.26665,-0.08503],[-0.16856,0.1482,0.1446,-0.1298,-0.18127,0.11205,0.15656,-0.30184,0.11201,0.19746,0.05176,0.08918,0.01312,0.19877,-0.15259,-0.09883,-0.292,0.09769,0.31561,-0.11276,0.23808,0.17161,0.2445,-0.15557,0.03194,0.08779,-0.05153,-0.20247,-0.03804,0.3416,-0.05382,-0.36934,-0.17761,0.03742,0.04415,-0.08799,-0.10259,0.12482,0.12699,-0.03139,0.41683,-0.1215,-0.17035,-0.06987,-0.38458,-0.02988,-0.26991,0.11259,-0.15261,0.08543,0.14176,-0.0188,0.09539,-0.35869,-0.17236,-0.01413,0.10018,-0.04409,0.32169,0.04142,0.0713,0.06979,0.21663,0.12519,-0.01593,-0.09724,0.16417,-0.1415,-0.19013,-0.00804,-0.33706,0.01927,0.19768,0.00329,-0.16071,0.31258,-0.09267,-0.0044,-0.10161,-0.04344,0.25204,-0.24831,0.0345,0.11586,0.0492,-0.0441,-0.04792,0.19215,-0.29171,-0.19567,-0.18373,0.02976,0.25895,0.004,-0.47465,-0.17183,0.07494,0.05604,0.09437,0.11206,0.0148,0.1958,-0.00329,0.33909,-0.08167,-0.10372,0.03456,0.256,0.0993,-0.1726,0.00396,-0.11509,-0.0359,-0.05748,0.25444,0.05906,0.10255,-0.32832,-0.23117,0.01248,-0.02553,0.19967,0.07086,0.14544,-0.0497,0.00433,-0.25325,-0.00996],[0.02374,-0.22723,0.00012,0.07298,0.34969,0.10714,0.15924,-0.16979,-0.14397,0.11164,0.44942,-0.07507,0.29612,-0.05302,-0.4307,-0.29856,-0.08754,-0.19121,0.07284,-0.06035,0.08594,0.00458,-0.23502,0.1791,0.1836,0.23765,-0.13652,0.03264,0.00514,-0.24316,0.18153,-0.15847,-0.13734,0.24433,0.1167,-0.02266,0.12881,0.03282,-0.0168,0.09776,0.42445,0.17546,-0.07279,0.05895,-0.27534,-0.0375,0.0738,0.14112,-0.17462,0.32216,-0.08863,-0.27042,0.04225,-0.30393,0.58709,0.21591,0.12584,-0.04588,-0.41808,0.01121,0.06539,-0.03515,-0.04846,-0.12095,0.1937,0.01491,-0.02965,0.32413,0.13636,0.02048,0.08222,-0.10241,-0.04759,0.05437,0.24191,0.04609,0.15652,0.00826,0.174,-0.01024,0.2977,0.25095,-0.09921,0.12662,-0.02142,0.26823,0.22692,-0.48646,0.13684,-0.08748,-0.23612,-0.37505,-0.0557,0.07988,0.22851,-0.11561,0.04971,-0.23595,-0.13358,0.06832,-0.13635,0.20932,0.03099,0.04709,0.10429,-0.10494,-0.0179,-0.05667,0.28527,0.10001,-0.21949,-0.06366,-0.12977,0.31318,-0.0863,0.21973,-0.21682,-0.11212,-0.37215,0.24431,-0.23514,-0.28187,-0.03546,0.00586,0.13646,-0.24962,-0.03644,0.10382],[-0.0976,0.13241,0.15881,0.18936,-0.01778,0.16823,-0.05187,0.12573,0.06142,0.0309,0.0809,0.23114,0.22793,0.08609,0.24652,0.06835,-0.19437,-0.04337,0.15467,-0.08767,-0.17624,0.14005,0.00959,0.05556,0.15268,-0.27269,-0.21886,-0.24389,0.17121,0.17561,-0.06106,0.34648,0.02048,0.119,0.08175,-0.03673,-0.28154,0.1227,0.06225,-0.03785,-0.01331,-0.1427,0.07765,-0.00626,0.08806,-0.11051,-0.12703,0.13567,0.07283,0.16559,0.05555,-0.28361,-0.02056,0.12676,-0.13623,0.35465,-0.20632,0.22571,-0.10705,0.26516,-0.05038,-0.2119,-0.30265,0.02945,-0.07234,-0.24137,0.09355,0.12838,-0.04574,0.1781,0.09951,0.26643,-0.14752,-0.14361,-0.2871,0.07026,0.19229,-0.10711,-0.07263,-0.12765,0.21388,0.41358,0.10755,-0.07011,-0.02546,0.03343,0.02774,-0.09489,-0.06786,-0.08002,-0.00074,-0.17814,-0.11904,0.06887,0.02441,0.04303,-0.03692,0.11621,0.07434,0.26723,-0.01948,0.00935,-0.13923,0.22117,-0.00925,0.06439,-0.01742,0.16428,0.14497,0.17235,0.31217,0.13998,-0.0734,0.26011,0.10822,-0.21421,-0.07551,-0.0574,-0.12457,0.07527,0.16855,0.02,0.03031,0.01799,-0.29316,-0.13874,-0.0349,0.14144],[0.24726,0.13287,-0.14297,0.00126,-0.0845,-0.26623,0.09064,-0.03282,-0.03857,-0.09424,0.08614,0.21061,0.09544,0.05027,0.0322,0.09581,-0.11751,-0.22294,0.15943,-0.0033,0.18865,-0.00959,0.16179,-0.132,-0.23506,0.12344,-0.10297,-0.14433,-0.02008,0.11526,0.08512,0.10611,0.28929,0.09869,-0.28587,-0.09123,0.26767,0.05497,-0.0319,-0.28708,0.03989,0.09385,-0.38682,0.11437,0.03447,-0.00761,0.17732,0.32013,0.08853,-0.01939,0.01976,0.26239,0.07671,-0.23437,0.12448,0.15295,-0.26456,-0.0067,0.14426,-0.07013,0.0903,0.14035,0.0328,-0.19708,-0.05103,-0.23781,0.24904,0.08128,0.02795,0.05462,0.22588,-0.1137,-0.06473,-0.11397,0.18708,-0.08337,-0.06149,-0.20191,-0.16694,-0.1172,-0.09777,0.0261,0.09165,0.06045,0.08336,0.01205,0.04136,-0.19033,0.02242,0.06982,0.13905,0.16476,-0.1192,-0.32142,0.19121,-0.30708,-0.05823,0.05507,0.15016,0.23706,-0.29383,-0.13894,-0.11912,0.10899,0.02316,0.1247,-0.0124,-0.05976,0.22549,-0.07242,0.11176,0.06712,-0.05258,0.04339,0.11243,0.21013,-0.08932,-0.12103,0.15552,-0.354,0.18989,0.03424,-0.213,0.03164,-0.02261,-0.27223,0.13219,-0.15491],[0.03107,-0.01924,0.04732,0.14885,-0.07265,-0.04071,0.0954,0.13394,0.05138,-0.04329,-0.12081,-0.02016,-0.05156,-0.06633,-0.22009,-0.19333,-0.13814,0.07319,0.16056,-0.11416,0.29308,0.04896,0.07115,-0.00099,-0.03815,0.00624,0.18134,0.25489,0.09072,-0.12645,0.06411,-0.02776,0.14308,0.23445,-0.015,0.19204,-0.21345,0.08517,0.09166,-0.08872,-0.12686,0.02906,-0.01306,-0.13499,0.14915,-0.14623,-0.21574,-0.30848,-0.14169,0.08244,-0.15076,0.39312,-0.09155,-0.18937,0.05376,0.05021,0.29594,-0.17844,0.16513,0.07008,-0.16837,0.00514,0.19901,0.10933,-0.26518,0.18548,-0.12649,-0.02106,0.23019,-0.04482,-0.04018,0.03334,0.08067,0.2163,0.02894,0.19328,0.3217,0.19663,-0.19809,0.08374,0.18388,-0.05761,0.00612,0.1534,0.07678,-0.10832,0.36772,-0.1121,0.02604,-0.2217,-0.15505,-0.23408,-0.1247,0.00649,-0.05555,0.36421,0.08601,0.23434,-0.11952,-0.12816,-0.21125,-0.27329,-0.11405,0.03114,0.13391,-0.01551,0.23581,-0.18087,0.36156,-0.17478,-0.01966,0.11064,-0.22037,-0.16476,0.06167,0.03641,0.10028,0.05946,0.06611,-0.20929,0.25337,-0.05818,-0.10312,-0.20051,-0.2773,-0.03351,-0.16617,-0.23499],[-0.12436,-0.24145,0.01387,-0.01963,0.12216,-0.03782,-0.08777,-0.08645,0.0867,0.09638,0.06219,-0.01633,0.07701,0.39919,0.20204,-0.15224,0.15102,-0.18568,-0.00878,-0.08391,0.04245,-0.03548,-0.21839,-0.24034,0.09261,-0.08742,-0.33378,0.09671,-0.03092,-0.004,-0.1346,-0.30724,-0.28359,0.11905,-0.05005,-0.20856,0.43476,-0.07606,0.0968,-0.00888,0.08976,-0.10803,0.08344,-0.14485,-0.07759,0.17198,-0.21076,-0.17744,0.17763,-0.24831,0.12032,-0.05139,0.04499,-0.02125,-0.21183,0.1651,0.10568,-0.39681,-0.23194,-0.40436,-0.02202,0.31615,-0.16477,-0.09489,-0.03352,-0.37203,0.01431,0.16084,0.04937,0.04616,-0.01469,-0.0781,-0.18726,-0.22798,0.10988,-0.09721,0.13742,-0.37806,0.16916,-0.12334,-0.36354,-0.28407,0.08677,-0.07471,-0.13832,-0.435,0.09789,-0.08923,-0.00983,-0.04288,0.25413,0.02358,-0.02022,-0.07613,-0.08192,-0.10726,0.36522,-0.06203,-0.17399,-0.19797,0.17944,-0.15394,-0.11987,-0.11333,-0.12265,-0.23452,-0.10202,-0.07124,0.08487,-0.00222,-0.07028,0.07472,-0.12614,-0.06307,0.07833,0.04746,0.23654,-0.06374,0.07312,0.38615,0.24331,-0.17309,-0.11932,0.02522,-0.1548,-0.17469,-0.0262,-0.37337],[0.02337,0.32456,0.29898,0.33985,-0.07528,-0.20651,-0.01664,0.34528,0.13467,-0.04307,-0.00802,0.06039,-0.06015,-0.24177,0.33612,0.26133,0.11281,0.03513,-0.0639,-0.04285,0.006,-0.04805,-0.18813,0.35325,-0.27398,-0.00845,-0.12165,-0.05309,0.26567,0.24612,0.06786,0.36459,-0.13035,-0.00999,-0.02378,-0.07681,-0.02901,0.02474,0.0006,0.09649,0.32794,-0.08099,0.01561,0.18895,-0.15501,0.20955,0.05596,0.20989,-0.014,-0.27177,0.13006,-0.20769,-0.16284,0.0698,-0.01232,-0.08211,0.12856,-0.08408,-0.01066,0.01564,-0.16435,-0.25066,-0.0951,0.15147,0.12034,-0.31658,0.24586,0.02548,-0.16778,0.33552,0.11809,-0.32919,0.00975,-0.03735,-0.038,-0.17276,-0.08753,0.16366,-0.14747,-0.11333,-0.23444,-0.00322,0.35819,0.09178,-0.28223,0.07503,-0.07638,-0.15678,0.10632,-0.05586,0.10397,0.11853,-0.17686,0.10884,0.21334,-0.12397,-0.03042,-0.02205,0.14645,-0.21501,-0.04015,0.32191,-0.07399,-0.01889,0.1981,0.34703,-0.08577,-0.38032,0.11209,0.16211,0.12234,0.00443,-0.19643,0.18807,-0.24365,-0.04412,0.2127,-0.02752,0.2209,0.06639,-0.12193,-0.15481,-0.12867,-0.15518,0.06617,-0.15025,-0.09586,0.30429],[-0.05648,0.21718,0.06728,0.21472,-0.06115,0.30222,-0.21087,-0.15011,-0.02721,-0.17518,-0.25512,0.02726,0.02718,-0.03326,0.04922,0.14233,-0.0803,-0.12404,-0.2045,0.32091,-0.42282,0.25958,-0.06213,0.01521,-0.34365,-0.09772,0.11826,0.0564,0.14591,0.05224,0.11354,0.07716,0.04258,0.07819,0.00084,-0.11932,0.13487,0.02894,0.20055,-0.09035,-0.11954,0.16423,-0.063,-0.18883,0.24167,0.01924,-0.24778,0.13161,0.20717,0.12147,0.09294,-0.17741,0.21051,0.28526,0.15715,-0.00973,-0.25807,0.03836,0.0391,0.00816,0.04512,0.07959,-0.09585,0.28459,-0.19639,-0.09027,0.12497,-0.02835,0.13889,-0.07041,0.22979,-0.02312,0.25026,-0.12148,0.32223,0.01599,-0.05421,-0.15684,-0.24064,-0.19805,-0.07704,0.12817,0.18381,0.07274,0.02727,0.17293,0.09657,-0.15964,-0.00556,-0.19703,0.36825,-0.31246,0.07488,0.1093,0.17675,-0.15928,0.06552,0.27843,-0.13531,0.05786,-0.05931,0.07377,0.00156,0.07401,-0.11571,-0.24146,-0.24492,0.11827,0.14169,-0.12479,0.33947,-0.13524,0.26825,-0.1836,-0.11751,-0.10993,0.04257,0.11551,0.28417,-0.17892,0.14056,-0.17882,-0.0065,0.04818,0.09777,-0.04093,-0.2677,0.17108],[0.33196,0.16398,-0.21766,0.11297,-0.31219,-0.00722,0.03787,0.15166,-0.13526,-0.0643,-0.03301,0.16349,0.05559,0.10518,0.15782,0.01361,-0.13069,0.09062,-0.08271,-0.43252,-0.34456,0.29191,-0.10929,-0.18579,0.03607,-0.21912,0.30886,0.17811,0.20615,0.03096,0.2362,-0.19002,0.0543,-0.01565,0.26647,-0.05592,0.05938,-0.13984,-0.11039,0.17838,0.27167,0.17362,0.13749,0.18294,-0.22271,0.07924,0.34813,0.05127,0.04,-0.17904,-0.35236,0.12386,0.05634,-0.01094,-0.02683,-0.11066,-0.43331,0.15418,-0.07054,-0.08973,-0.24131,-0.41849,0.17084,0.10601,0.33458,0.01939,0.24303,-0.15179,-0.09268,-0.32401,0.19769,0.00803,-0.09994,0.1332,-0.15371,0.01483,-0.03708,-0.08029,0.06942,0.11119,-0.03618,0.27412,0.13802,0.23771,-0.12337,0.01841,0.33683,-0.03674,0.05249,-0.33966,0.07672,-0.07536,0.13271,0.01625,0.31701,-0.03026,0.18126,-0.15048,-0.01285,0.0943,-0.1992,0.20633,0.07638,0.05175,0.14905,-0.09928,-0.26222,0.03381,-0.09702,-0.15119,-0.16414,-0.10235,-0.09986,0.1229,0.04227,-0.06375,-0.01127,0.00133,0.36954,0.02019,-0.09574,0.00447,0.22956,-0.10127,-0.206,-0.1134,0.14255,-0.12135],[0.10369,0.44427,-0.16052,-0.12965,-0.13857,-0.11097,-0.08065,-0.10555,-0.17586,-0.42395,0.16799,-0.03812,0.06626,-0.02104,-0.30269,0.09642,-0.04222,-0.30348,-0.10539,0.02247,0.10259,-0.34982,-0.24887,0.0624,0.19453,-0.18023,0.10934,-0.10161,0.23381,-0.07747,-0.08511,-0.121,0.12641,0.10394,-0.00336,0.13573,0.19508,0.00672,-0.17981,0.20724,0.00593,-0.14167,0.08702,0.2591,0.1588,-0.04951,-0.0315,0.06862,0.10188,-0.12074,-0.1256,0.05384,-0.195,0.05553,-0.18616,0.22434,-0.21902,0.18381,-0.02306,-0.19768,-0.11475,-0.04725,0.16968,-0.08011,0.06514,-0.21645,-0.26474,-0.01072,-0.32997,-0.13672,0.08969,-0.04527,0.03619,-0.34043,0.21125,0.11824,-0.11797,-0.12355,0.15982,0.07032,-0.27114,0.26523,-0.08337,-0.10589,0.21178,-0.13806,0.13613,-0.07255,-0.14902,-0.08222,0.0554,-0.01094,-0.03238,-0.05672,0.05119,0.04705,-0.0522,-0.00835,0.46311,0.09377,-0.14388,0.11875,-0.03706,0.26359,-0.23477,-0.28611,0.01187,0.20822,0.02137,-0.07061,-0.47748,0.07636,-0.00776,0.03212,0.2414,0.10235,0.10498,-0.1373,-0.14377,0.53384,-0.12706,-0.38216,-0.43481,-0.06177,-0.0705,-0.03638,-0.05348,-0.24909],[0.21623,0.28329,-0.17132,-0.18505,0.16843,-0.03071,0.26735,-0.0925,0.15421,-0.09792,0.35339,0.0996,-0.15013,-0.03308,-0.0665,-0.02593,-0.15447,0.00147,0.1478,0.09962,-0.20933,-0.03808,0.02509,0.1966,0.14835,-0.07531,0.03851,-0.08464,-0.46196,-0.24811,0.03739,0.12353,0.15524,-0.05468,0.04327,-0.16109,-0.17039,0.1913,-0.13201,-0.09541,-0.1132,-0.11749,-0.15675,0.36231,-0.18556,-0.17607,0.08387,0.31685,0.3165,0.01516,-0.24612,0.13573,0.08535,-0.05231,0.44301,-0.33819,-0.21409,-0.1332,-0.24239,-0.02532,-0.05537,-0.0185,0.38807,-0.02409,-0.09832,-0.23786,-0.12374,-0.07042,0.06421,-0.08893,-0.10012,-0.18023,-0.10176,0.08165,0.21738,0.05908,-0.00607,0.31886,-0.09126,-0.19561,0.02136,-0.14364,0.05365,-0.15841,-0.32691,-0.18328,0.09984,-0.1565,0.00848,-0.17588,-0.13037,-0.03374,0.11202,-0.07805,-0.04095,0.032,-0.12196,0.30735,-0.38352,0.13246,-0.26647,-0.04543,-0.23776,-0.1227,-0.20054,-0.1223,0.01496,0.27163,-0.00026,-0.13001,-0.41166,0.31592,0.0089,-0.03934,-0.39463,-0.01745,-0.06872,0.0975,0.16889,0.10539,0.07978,-0.08816,0.06493,-0.05307,0.24078,0.03702,0.20919,0.00966],[-0.14699,-0.0306,-0.16154,0.09875,-0.26875,-0.00662,-0.13056,-0.06772,0.13212,0.09293,-0.0652,0.15123,0.1493,-0.0476,-0.04813,0.04602,-0.02802,-0.21533,0.03511,-0.01322,0.06172,-0.0955,-0.31288,0.07728,0.42993,-0.35469,-0.06395,0.31706,0.35774,0.08294,-0.03643,0.10709,0.06741,0.13117,0.18459,-0.02774,-0.28665,-0.0413,-0.0117,0.18943,-0.0569,0.3015,-0.09301,0.24383,-0.0049,-0.22603,-0.05235,-0.3278,0.04082,-0.19154,-0.01631,0.33783,-0.0007,0.17883,-0.21937,-0.03368,-0.08875,-0.07061,0.1892,-0.19415,0.01988,-0.11899,0.57286,-0.11135,0.17278,-0.1051,-0.16117,0.04317,0.1919,-0.38417,-0.07721,0.31918,0.08858,0.11979,-0.1076,-0.26372,0.0884,-0.06059,-0.18032,-0.40227,-0.26525,-0.10107,0.01572,0.09979,0.32693,-0.05746,-0.09642,0.05435,0.16448,0.28598,-0.1603,0.07011,0.10157,0.31535,0.07362,0.10586,0.07492,-0.37421,0.02176,-0.10431,0.11353,-0.07003,-0.03472,0.18203,0.01075,-0.09247,0.22952,-0.0776,-0.17819,0.06722,0.21789,0.03027,-0.5081,0.2413,-0.225,-0.07488,0.01634,0.04123,-0.16531,0.21782,0.17073,-0.32738,-0.03936,-0.0714,0.05229,-0.35926,-0.24762,-0.12657],[0.03923,-0.02667,0.09247,0.15071,0.0964,0.1524,-0.03619,-0.11529,0.00615,-0.02665,0.03137,-0.1223,0.29,-0.1193,0.08376,-0.0715,-0.05751,-0.0293,-0.06622,-0.30223,0.16441,0.31238,-0.16854,-0.06651,0.16735,0.22037,0.1411,0.21032,0.10488,0.19534,0.04368,-0.1281,0.32698,0.0847,-0.09799,-0.01383,-0.01922,-0.01216,-0.13807,0.14363,0.10738,0.18626,0.03425,0.02531,-0.4517,0.06371,-0.10601,-0.27851,-0.0598,0.03808,-0.16547,-0.38417,-0.0788,-0.00167,-0.46244,0.08951,0.05888,-0.2429,0.108,0.31906,0.25667,-0.02864,-0.05677,0.02813,0.29039,0.13035,-0.02703,0.06606,-0.18374,0.11348,0.17406,0.04113,0.00245,-0.36537,-0.05487,0.01277,0.02085,-0.02778,-0.02634,-0.23389,-0.20931,-0.09044,-0.15245,-0.20099,0.11123,0.10731,0.32103,0.19351,-0.01959,0.0407,-0.09259,0.14795,-0.14075,0.27188,0.13222,-0.24146,-0.04272,0.28799,0.28572,-0.14079,-0.15719,-0.22034,0.08202,-0.07495,0.08707,-0.02085,0.2093,0.12228,-0.24535,0.29749,-0.03202,0.02193,-0.07597,0.02598,-0.18152,-0.02349,-0.30028,-0.18716,-0.18024,0.10246,0.24022,-0.23782,-0.33517,0.26668,0.13603,-0.0726,-0.0535,0.05957],[0.11228,0.15742,-0.08427,0.11315,-0.33308,-0.22108,-0.09814,0.36291,-0.14425,0.28192,0.28005,-0.18527,0.13457,0.06997,-0.21143,0.05063,0.15094,-0.06787,-0.05364,0.25313,0.0781,-0.13234,0.00713,0.09551,-0.03849,0.05287,0.15638,-0.3094,0.09391,0.39915,0.11229,0.20289,-0.22033,0.00482,0.13795,-0.23141,0.205,-0.03533,-0.18557,0.47546,0.27809,-0.10485,0.1273,-0.23346,0.00504,-0.06203,0.01721,-0.11827,0.12776,-0.16859,0.11036,-0.18196,0.05336,-0.17857,0.05934,-0.04778,0.19837,-0.06296,0.18357,0.02104,0.26991,-0.12828,0.04287,-0.04851,-0.05804,-0.33544,0.10987,-0.14154,-0.11432,0.06114,0.06166,0.25774,0.08555,-0.19642,0.00764,-0.35714,0.16807,-0.06999,-0.17542,0.08647,0.0153,-0.06456,0.18588,0.19063,0.05119,0.24626,-0.14486,0.1089,0.00582,0.34616,-0.11995,0.30829,0.26805,0.00454,0.10857,0.25581,-0.19347,0.21939,0.05805,0.1369,-0.02794,-0.26933,-0.33521,0.10635,-0.0639,-0.07826,0.03329,-0.31031,-0.09821,-0.16887,0.02187,-0.18508,0.04362,0.36754,0.27806,0.02721,-0.13846,-0.21092,-0.07696,-0.06782,-0.03644,-0.04847,0.03708,0.22096,-0.09282,0.32774,0.16631,-0.12345],[0.24374,-0.20143,0.33707,0.03436,-0.02094,0.17984,0.19036,-0.02526,-0.12643,0.06996,-0.13435,-0.17175,-0.23674,0.03188,-0.00162,-0.14459,0.28693,0.38989,0.15342,-0.10544,-0.2469,0.33907,0.01472,0.03584,-0.16023,-0.16062,-0.09307,0.05402,0.19753,-0.09656,-0.23924,-0.43305,-0.03172,-0.14728,-0.07568,0.16381,-0.08391,-0.13812,0.13134,-0.15997,0.20623,-0.10455,-0.01606,0.45353,-0.06139,0.1346,-0.046,-0.21475,-0.15069,0.00241,-0.13759,0.0702,-0.1425,-0.22799,0.1438,0.15307,-0.09574,0.18145,-0.19036,0.0669,-0.17197,-0.26106,-0.06903,-0.11393,-0.22774,0.02354,-0.10162,0.26682,-0.01255,-0.01362,0.21544,-0.19917,0.12983,0.05396,-0.06932,0.09127,-0.22158,-0.25922,-0.16405,0.05486,-0.14424,-0.08509,0.30215,-0.13363,-0.06235,0.02091,-0.20906,-0.16921,0.15053,-0.13603,-0.25192,0.12911,0.1191,0.10511,-0.00669,-0.14803,0.1316,0.13817,-0.20373,-0.1374,0.24477,-0.01861,-0.06347,0.19789,-0.04782,0.31437,-0.31603,0.07655,-0.15499,0.13653,-0.00975,0.2671,0.12673,0.09598,0.05164,0.21969,0.21537,-0.05537,-0.14116,0.01188,0.14298,0.3241,-0.00613,-0.18141,0.23494,-0.23798,0.15036,0.08267],[-0.05386,0.10993,-0.03615,-0.05442,-0.02248,0.00789,-0.07004,-0.03352,0.08209,0.05913,0.20508,0.2393,0.24631,0.01008,0.24081,-0.05027,0.00941,0.23191,0.04202,-0.0609,0.12742,0.103,0.05015,-0.14964,-0.20469,-0.00871,0.21911,-0.27059,0.0433,-0.28649,-0.06643,0.21627,0.19956,0.0089,-0.04002,-0.0509,-0.01997,-0.11099,0.03339,-0.27305,0.23279,0.04454,0.28947,-0.0426,0.14247,0.01293,0.07276,-0.21552,0.24585,0.23638,-0.07177,0.19983,-0.10262,-0.08286,0.20819,-0.02928,0.14349,-0.07962,-0.00356,-0.13598,0.14387,-0.0206,0.14493,-0.1001,0.2204,-0.15765,-0.0585,-0.0375,-0.00541,0.3575,0.02494,0.07755,0.06123,-0.00198,-0.0101,-0.05603,-0.166,-0.04193,-0.01191,0.18749,0.06096,-0.26297,0.2594,0.30656,0.04706,0.12055,0.20104,0.0127,-0.1113,-0.03372,0.00158,0.20721,0.04831,0.25466,0.29547,-0.07924,0.22754,0.06648,-0.06464,-0.2124,0.06855,0.30075,0.03967,-0.33323,0.22057,-0.15824,-0.04185,-0.16198,0.04583,0.11867,-0.19982,-0.12203,0.17304,0.05995,0.19243,-0.15461,-0.04442,0.55708,0.15461,-0.03067,0.13398,0.04511,-0.2693,0.24969,0.38845,-0.19753,0.32055,0.08048],[0.05198,-0.02717,-0.07557,-0.363,0.07937,-0.10749,-0.18033,-0.10686,0.15883,-0.19859,0.00945,-0.08637,-0.20414,-0.24406,0.03534,0.08617,-0.14387,-0.05079,0.18979,0.12784,0.2939,-0.10275,0.26372,0.3848,-0.33248,-0.20401,-0.00399,0.25456,0.15626,0.06883,-0.25517,0.28175,-0.23492,-0.10656,-0.01624,0.03177,0.12836,-0.10717,0.07275,0.19777,0.17302,-0.07689,0.09161,-0.17751,0.17097,-0.11629,-0.12026,0.19315,0.39441,0.50012,0.02469,-0.0969,-0.16003,0.04403,-0.26676,0.21398,0.19274,0.14472,0.13796,0.05508,0.09432,0.43085,-0.03903,0.0209,-0.11379,-0.04866,-0.2111,-0.1386,0.06333,-0.04712,-0.1762,0.2473,-0.073,-0.21609,-0.03584,0.14877,0.09908,0.02899,0.25888,-0.20828,-0.05712,-0.09595,0.14126,-0.04963,0.03955,0.06614,-0.0349,-0.06688,0.11164,0.14261,0.23396,0.06882,0.43424,-0.05546,0.15958,0.08181,-0.37609,0.12601,-0.01502,-0.15939,0.31469,0.16702,-0.15154,-0.04284,-0.06381,0.12039,0.29164,0.03524,0.02593,0.35105,0.11702,0.0421,-0.25882,-0.02258,-0.2289,0.16954,-0.09397,0.02794,0.10761,-0.25907,-0.27289,-0.08492,0.09255,-0.11723,0.09711,-0.19784,0.13238,-0.07743],[0.28589,0.18578,0.05187,0.26704,0.31121,-0.07019,0.1363,-0.28582,-0.07757,-0.0573,-0.10043,-0.06435,0.11477,-0.10232,0.1754,-0.14077,-0.30247,-0.07039,0.11421,-0.10243,-0.10133,-0.22985,-0.00885,0.35935,0.23415,-0.19105,0.07065,0.13651,0.00984,-0.0186,0.02202,-0.29277,-0.10424,-0.25416,-0.10705,-0.13221,0.01118,-0.02409,-0.05805,-0.16356,-0.05512,-0.02696,-0.03498,0.00301,-0.22943,-0.07104,-0.09095,0.0944,0.31853,-0.20312,-0.24613,-0.18082,-0.02071,-0.18482,0.20556,0.20832,0.06781,-0.08677,-0.10077,0.07067,-0.30671,0.12692,0.23816,-0.14964,-0.32709,0.25577,0.24839,-0.27201,0.07586,0.17328,0.06408,0.13031,0.15205,0.17617,-0.20944,0.15284,-0.12268,-0.11282,-0.1303,-0.20922,0.14934,0.08158,-0.13475,-0.23894,0.18919,-0.00754,0.11004,-0.13235,-0.03157,0.13542,0.06744,-0.15342,-0.38757,-0.31877,0.06003,0.02743,0.11395,-0.08158,-0.08106,-0.09066,0.22925,0.09532,-0.19573,-0.03994,0.21896,0.18687,-0.01214,-0.13563,0.1152,-0.07949,0.443,-0.10336,-0.10573,0.11611,0.10671,-0.1144,0.00316,0.18312,-0.40837,-0.23584,0.02416,-0.01044,-0.02187,-0.27861,-0.04136,0.20492,0.0485,-0.03158],[0.00608,-0.1748,-0.07263,-0.64088,-0.0264,0.04207,-0.06517,0.09559,-0.14628,-0.14563,0.19673,-0.12678,-0.21688,0.23131,-0.03522,-0.17608,-0.0217,-0.08501,0.0049,0.00569,-0.01781,-0.17867,-0.18183,0.16511,0.17527,-0.13456,-0.02405,-0.12647,-0.07242,0.39225,-0.05068,-0.09498,0.05324,0.11192,-0.04197,-0.5314,-0.06031,0.30456,0.24796,0.21402,-0.05731,0.01422,-0.13688,0.23255,0.03743,0.1379,0.1646,-0.18757,-0.10346,-0.07778,0.17316,0.32877,-0.26276,-0.3008,0.04426,0.15565,-0.14817,-0.27245,0.20548,0.15618,0.39861,0.22876,-0.12083,-0.14068,0.09781,-0.05335,-0.22091,0.19568,-0.35596,-0.03777,-0.03302,4e-05,-0.12522,0.14046,0.07641,-0.12684,-0.00067,0.02726,0.24436,0.07167,0.00971,0.0153,-0.15065,0.36386,-0.17852,0.09326,0.31342,-0.0718,0.15664,-0.14529,-0.2031,0.00472,-0.24454,0.16087,0.06849,-0.06547,0.24008,-0.11856,0.09331,-0.31171,0.10061,-0.28704,-0.00663,-0.03692,0.00968,0.11058,-0.2483,0.00139,0.20286,0.07575,-0.14938,0.24936,-0.07952,-0.4223,0.06696,0.07809,0.26602,-0.06687,-0.05401,-0.02735,-0.23156,-0.03616,0.12216,0.05413,0.08498,0.09979,-0.21567,-0.02892],[-0.027,0.038,0.32449,0.22519,0.35076,0.09512,0.01782,0.43433,0.14599,-0.01697,-0.24465,0.32516,0.08749,-0.21632,0.05736,0.34122,0.01685,-0.06103,0.06093,0.00884,0.08253,0.30901,0.04291,-0.1735,0.17694,0.28427,0.06497,0.04864,0.24942,0.08338,0.09826,0.02205,-0.38923,0.147,0.00169,-0.16525,-0.20333,-0.1869,-0.03233,-0.02411,0.21029,0.17852,0.08959,-0.07611,0.2082,0.17188,-0.23549,0.30598,-0.13411,-0.179,-0.15426,-0.18327,-0.04766,0.10497,-0.18419,0.21983,-0.10312,0.03709,0.05624,0.39452,0.10429,-0.08569,-0.04578,-0.07821,0.0112,-0.00852,0.07559,0.12047,-0.10171,-0.2081,-0.16002,0.01432,-0.27572,-0.00165,-0.21481,0.00587,-0.13836,-0.04661,0.04078,0.03766,-0.20851,-0.2189,0.33576,0.19945,-0.05692,-0.09156,0.04264,-0.0906,0.10684,0.04049,-0.02661,-0.13561,0.11826,0.01004,-0.23671,0.25065,-0.17895,0.06947,-0.35529,-0.17334,0.08196,0.39725,0.02984,0.14594,-0.41969,0.21102,0.13003,-0.36117,0.19498,0.03561,0.09818,-0.0574,-0.17156,-0.05341,-0.08256,0.28357,0.32104,0.08477,0.16943,-0.0869,-0.01481,0.20454,-0.06801,-0.04283,0.06436,0.00179,-0.00853,0.18719],[-0.29577,0.2275,0.20527,-0.19727,0.23993,-0.02585,-0.30864,-0.02066,0.01519,0.03891,-0.25219,-0.29297,0.19681,-0.00025,-0.00624,-0.07859,0.40001,-0.03425,-0.13388,-0.39081,0.2831,0.15004,0.04968,0.40425,-0.27002,0.21409,-0.05721,-0.21497,0.30196,0.03307,0.07771,-0.07227,0.11519,-0.08685,0.4291,0.01363,-0.04793,0.25129,0.23179,0.09268,0.02915,0.02571,0.05316,-0.28858,-0.17389,0.07036,-0.30299,0.04553,-0.19274,-0.27021,-0.20581,0.20197,-0.06648,0.22762,-0.09809,0.178,-0.36815,0.01439,0.32105,0.1775,-0.06583,-0.01449,-0.17316,-0.03636,-0.09959,-0.20294,-0.13529,0.01839,0.18185,-0.22477,-0.02982,0.00627,0.16081,-0.07153,0.09706,0.40089,0.16898,-0.06521,-0.17529,-0.12969,-0.02251,0.27567,-0.0498,-0.28864,-0.03984,-0.11317,-0.11163,-0.10677,0.22562,0.08447,-0.21318,0.09917,-0.32276,0.09777,0.26478,-0.0534,0.00455,0.00213,-0.2653,-0.02304,0.10883,-0.03347,-0.31162,-0.01953,0.05542,0.11929,0.14926,0.11568,0.10327,-0.00647,-0.20993,-0.19462,0.26503,0.12254,0.32132,-0.03208,0.18816,0.06097,-0.24768,-0.14169,0.22945,-0.05353,0.06479,-0.00752,-0.01308,-0.20474,-0.05042,0.14667],[0.00665,0.17721,-0.07566,-0.09172,-0.27835,-0.00417,0.16994,0.10354,-0.07853,-0.05894,0.14849,0.07597,0.1114,-0.09446,-0.02464,-0.08728,0.16801,0.11955,0.02806,0.16111,0.12169,-0.08567,0.01157,0.57482,-0.14856,-0.01731,-0.23455,0.04751,0.30938,0.08783,0.30239,0.01876,0.23737,-0.16526,0.11615,-0.08965,-0.04128,-0.22231,-0.10016,0.35117,0.13339,0.18324,-0.37824,-0.44266,0.00205,-0.06534,-0.23552,0.19202,0.0024,-0.03136,0.23067,-0.12275,-0.3654,-0.02323,0.0554,0.12112,-0.08847,-0.07657,-0.09391,-0.18431,0.32201,0.01996,-0.32304,0.15535,-0.2488,-0.14307,0.15263,0.20931,0.0667,0.08127,-0.03781,0.19879,-0.18187,-0.09824,0.10396,-0.12727,0.13676,-0.31503,-0.19156,0.07119,-0.07149,-0.3564,0.07728,0.05556,0.02387,-0.28792,0.05882,-0.34499,0.11938,0.10523,0.00681,-0.11029,-0.05016,-0.10187,-0.15397,0.03537,0.22865,0.33044,0.12648,0.10121,0.15118,-0.048,0.58478,0.1132,-0.01511,-0.10785,-0.11831,0.03103,-0.2339,0.13524,0.03158,-0.20021,0.10848,0.05054,-0.12068,0.27047,0.36151,-0.14598,-0.10832,-0.10582,-0.01721,0.02661,0.05167,0.14112,0.041,-0.1648,-0.01693,0.10116],[-0.10122,0.15559,-0.10202,-0.04119,0.05086,-0.07735,0.00508,0.06254,-0.02533,0.11409,-0.11728,0.17047,-0.00314,0.13839,-0.12578,0.15534,0.32914,0.12558,0.05708,0.01731,0.42591,-0.13661,-0.03061,0.2326,-0.29752,0.1467,-0.11572,0.04264,0.02801,-0.05583,-0.16227,0.18238,-0.39385,-0.15827,-0.43533,-0.02772,0.03727,-0.32518,-0.15148,0.15169,0.3489,0.0476,0.11292,-0.18653,-0.11373,-0.17447,0.03616,0.00678,0.03738,-0.26565,-0.30825,0.0844,0.09719,-0.31203,0.09784,-0.03557,-0.24174,0.21828,-0.23917,-0.05834,-0.06684,-0.19911,-0.14924,-0.01775,0.04913,0.16136,0.11378,0.13616,-0.04177,-0.19586,-0.25746,-0.01258,0.20173,0.20729,-0.26098,-0.14712,-0.04423,-0.00559,-0.22276,0.06942,-0.15515,0.34186,0.2255,0.15697,0.27799,0.17737,-0.10869,-0.03814,0.01422,-0.38503,-0.0322,0.33509,-0.04475,0.11782,-0.20778,0.09893,-0.15053,0.03946,-0.04506,-0.01409,-0.04419,0.10561,0.14965,-0.53753,0.23908,-0.02253,-0.06594,-0.0106,-0.22862,0.06009,0.00882,-0.03351,0.21508,0.03478,0.17085,-0.04835,0.22745,-0.04998,0.03027,-0.01749,-0.19188,0.08903,-0.23123,-0.13886,0.20363,-0.0277,-0.1769,-0.00196],[-0.04257,0.00487,0.131,0.0805,-0.15456,0.17219,0.11565,0.03138,0.21426,0.19502,-0.1682,0.18797,0.00011,0.02023,-0.11117,0.06366,-0.1251,-0.10427,-0.04098,0.1067,-0.16202,-0.13052,-0.08251,0.25467,0.03329,0.20469,0.18139,0.11595,-0.36018,-0.18875,-0.24129,-0.24722,0.12303,-0.34503,0.05504,-0.23323,0.17375,0.11784,-0.35327,0.1105,0.10656,-0.10885,-0.25313,0.05951,-0.06574,0.09544,0.1841,-0.07911,0.28947,0.27455,0.02269,-0.13069,0.25608,-0.12639,-0.27727,0.00185,-0.34198,0.0309,0.09546,0.12683,-0.0859,-0.03468,0.08692,-0.01816,0.02178,0.34527,0.02216,-0.17174,0.36743,-0.08228,0.01967,-0.25879,-0.1269,-0.0329,-0.16713,-0.09919,0.42199,-0.01416,-0.30659,0.06244,0.30786,-0.08422,0.38055,0.12472,-0.01437,0.0454,-0.13804,0.04075,0.18566,-0.01661,-0.31128,-0.04286,-0.09048,0.062,-0.10708,0.14136,-0.05774,0.15835,-0.00306,0.05479,0.07724,-0.07898,0.12208,-0.35824,-0.06666,-0.39695,0.10361,-0.4021,-0.04148,-0.10952,0.10551,0.02151,-0.09994,-0.10137,0.11491,0.06799,0.10901,-0.11645,-0.14516,0.05059,-0.13902,0.31863,0.29045,0.25713,-0.0088,-0.07582,0.13119,0.19783],[-0.20294,0.21621,-0.14065,-0.11965,-0.07924,0.17016,0.0211,0.02089,-0.04127,0.00645,0.09764,-0.09985,0.11158,-0.16013,0.02063,-0.24965,0.0021,0.03907,-0.0959,0.06671,0.12965,0.03606,-0.02713,0.16336,0.14771,-0.18794,0.36716,0.24937,0.03503,-0.02912,-0.09196,0.24454,0.00921,0.15948,0.25528,-0.24297,0.50719,0.04084,-0.07296,0.0434,-0.19758,0.11687,0.14827,-0.15123,0.12213,0.08758,-0.27483,0.06639,0.07494,0.13859,0.02453,-0.06725,0.03872,0.17895,0.298,-0.03317,0.12815,0.06185,-0.06576,-0.3224,-0.0767,-0.17097,0.11274,0.20391,-0.03894,0.02453,0.12943,0.56503,-0.19248,-0.20619,0.03165,0.19574,0.17921,0.23824,0.00751,-0.10304,-0.08062,0.06338,0.0843,0.00419,-0.23324,-0.19397,-0.08301,-0.16246,-0.06435,-0.0391,0.30072,0.01943,0.18411,0.06679,0.14906,0.03972,0.17055,0.09801,0.00356,0.10205,0.342,-0.10634,0.4652,-0.07477,0.14343,0.07231,-0.30986,0.35252,0.07314,0.14192,-0.00162,-0.04583,-0.12288,-0.04188,0.15576,0.08712,-0.13371,0.26392,0.11047,0.09202,-0.07258,-0.12997,0.33545,0.19978,0.08554,0.03361,-0.00819,0.10384,-0.11034,-0.16922,0.05552,-0.07074],[0.24843,-0.31842,0.10044,-0.27166,-0.33844,-0.04793,-0.12439,-0.05563,-0.03528,0.04733,-0.17336,0.0602,-0.05132,0.08143,-0.02032,-0.01193,-0.31861,0.11011,0.06784,-0.13462,0.10924,0.16128,0.16472,-0.0758,0.03096,0.01922,0.32906,-0.0271,0.1482,0.05709,-0.16614,-0.08945,0.01287,0.06227,0.15651,-0.23818,0.07042,0.23956,0.19046,0.10599,-0.14979,0.03448,-0.18427,0.16727,-0.00635,-0.00819,-0.05318,0.24928,0.18203,-0.07919,0.0852,-0.23951,0.09803,-0.10249,-0.01661,-0.03748,-0.1068,0.00446,0.11081,-0.02519,-0.27373,-0.30875,0.18278,-0.13663,-0.07912,-0.04475,0.06485,0.04008,-0.10819,-0.01488,-0.14696,0.27457,-0.33486,-0.07126,-0.37454,0.22649,-0.22825,0.20383,0.08992,-0.01918,0.14559,-0.33796,-0.06468,-0.09167,-0.00939,0.09006,-0.04396,0.06809,-0.22399,-0.08082,-0.11112,-0.08937,0.2424,-0.10131,-0.19692,-0.0777,0.02716,-0.01136,0.15692,0.13254,0.07216,-0.03631,0.2019,0.11061,-0.34192,0.03603,0.30559,-0.2231,-0.24063,0.24541,-0.03749,0.20088,0.40433,0.13991,-0.0887,-0.18734,-0.24635,0.01904,0.16578,0.10205,-0.1737,0.13805,-0.14109,-0.20423,0.04343,0.00587,-0.22188,-0.14761],[0.00227,0.05567,-0.19653,-0.11475,0.03945,-0.16283,-0.31355,0.35345,-0.06402,-0.03181,0.13667,0.04038,0.20411,0.15216,-0.10292,0.24128,0.23348,-0.24115,0.04792,-0.09105,0.051,0.29374,-0.19753,0.03437,0.12769,0.1664,0.27259,-0.18748,0.11999,-0.14024,0.068,-0.01097,0.18254,0.26271,-0.15677,0.17788,0.12911,-0.2946,0.09307,-0.1506,0.01635,-0.02384,0.00589,0.02798,-0.06892,0.26069,-0.11012,0.14706,-0.18173,-0.07569,0.06965,-0.13519,-0.08123,0.20883,0.39066,-0.15384,-0.09627,0.02788,0.32681,-0.29919,0.1733,0.039,-0.16065,0.10579,0.12238,0.31521,-0.48413,0.2298,0.07582,0.04988,0.13099,-0.28512,-0.03176,-0.05302,-0.13553,-0.16528,0.14921,0.11635,-0.22016,0.01893,0.07385,-0.05424,-0.07831,0.05431,-0.13437,-0.20973,-0.16664,0.20578,-0.45902,-0.04924,-0.06679,-0.02821,0.19964,0.06757,0.22752,-0.11238,0.08971,0.26675,-0.25743,0.09625,-0.1429,-0.17555,-0.06609,0.13109,0.08659,-0.07426,-0.0546,0.08702,-0.11719,-0.02177,0.17171,-0.19593,-0.04052,0.10261,0.02339,0.15265,0.18913,0.07091,0.15009,0.12424,-0.02197,-0.10772,-0.074,-0.13721,-0.14428,0.09912,-0.25492,0.17051],[0.43496,-0.16583,-0.14068,0.12021,-0.05447,0.07974,0.04408,0.06322,0.35055,-0.19233,0.06694,0.1373,-0.3413,0.23251,0.10141,-0.03986,0.16127,-0.17645,0.15901,-0.03192,-0.02643,0.23927,0.1331,-0.01491,0.27728,0.03931,0.10989,0.04254,0.09649,-0.17871,0.00643,-0.25869,-0.34181,0.0146,0.24836,-0.09378,0.04736,0.14525,0.18573,0.09898,-0.00284,0.23475,0.31849,-0.15354,0.25805,-0.35749,-0.34393,0.19439,0.23287,-0.01856,-0.06334,-0.198,-0.19917,-0.0958,0.1597,0.29082,-0.04631,0.33201,-0.2218,-0.11248,-0.03814,-0.01026,0.06998,-0.06076,-0.01817,-0.38413,-0.14758,0.22681,-0.11904,0.15661,0.05104,-0.51558,0.11514,0.25548,0.09382,0.17713,-0.1831,0.22834,-0.1019,0.01254,0.0996,0.28785,-0.02363,-0.0212,-0.00117,-0.13963,-0.31161,0.11349,0.07867,-0.06613,-0.14501,0.1396,0.02275,0.10156,0.00739,0.13495,-0.00895,0.30741,0.16345,-0.03915,-0.07738,-0.05086,-0.12414,-0.06674,0.23355,0.26183,-0.1118,-0.16,0.21741,-0.02883,-0.04402,-0.15019,0.33668,-0.08806,-0.06498,0.1176,-0.09204,0.1707,-0.24645,0.16108,-0.17298,0.17763,0.01889,0.2927,0.2857,-0.27416,0.07711,-0.13215],[-0.07441,0.22703,-0.02693,-0.10187,-0.08172,-0.23452,0.04813,-0.33297,0.23524,-0.13042,-0.13838,-0.08393,-0.32828,0.24711,-0.14266,-0.20226,0.23242,0.18392,0.00856,-0.05633,-0.29663,-0.34576,-0.05076,-0.10343,0.23818,0.0817,0.20752,0.20506,-0.08219,-0.09622,-0.1045,-0.02502,-0.01048,0.11937,-0.02092,0.03467,0.09379,-0.10228,0.02608,-0.08105,0.36788,0.12865,0.10819,0.10733,0.21169,-0.29945,0.01411,-0.09934,-0.04634,-0.07214,-0.1501,0.13563,0.0773,-0.13083,-0.0536,0.15371,-0.10394,-0.07823,-0.32371,0.22775,-0.20344,-0.17276,0.12964,0.16672,0.07596,-0.0367,0.28143,0.15641,-0.12054,-0.11397,-0.23181,-0.04912,-0.05641,-0.02169,-0.04249,0.20858,-0.11815,-0.11729,0.16669,-0.12448,-0.16044,-0.03094,-0.14281,0.26336,0.27845,0.34284,0.01339,0.01234,0.01171,0.03734,0.00308,0.21405,0.13181,0.09144,-0.10188,0.09236,-0.08436,0.24611,0.05788,-0.27098,0.08443,0.13167,0.04086,-0.12663,0.04564,0.08992,-0.21179,0.17478,-0.04073,-0.04783,0.10358,-0.18478,-0.18786,0.12354,-0.36897,0.22311,0.08067,0.20289,-0.24331,0.04272,0.05462,-0.08501,0.28338,0.04013,0.11225,-0.06644,0.22455,0.11509],[0.18836,0.28379,-0.01779,0.02419,-0.33575,0.12358,0.11556,0.26958,0.04764,0.0145,0.4538,-0.04623,0.15309,0.18213,0.27608,-0.45606,-0.14904,0.16025,0.04215,0.06287,-0.11168,-0.04022,-0.13039,0.04227,-0.13621,0.14951,0.18136,-0.02237,-0.29518,0.04753,0.02607,0.10302,-0.10951,0.02375,0.05496,0.28027,0.3148,-0.14377,-0.07816,-0.17531,0.32096,-0.28327,-0.01944,0.21849,-0.07059,0.01159,-0.15771,-0.02201,-0.14994,0.34621,-0.10644,0.08117,0.34837,-0.01539,-0.21693,0.0707,-0.01192,-0.15724,-0.36822,-0.08045,0.11398,-0.07144,-0.17576,-0.07191,0.12114,-0.29505,-0.14586,-0.11288,-0.37041,0.07431,0.02879,0.00826,0.12385,-0.20512,-0.01286,0.32725,-0.04363,0.09822,-0.0616,-0.16975,0.10575,-0.00673,0.04729,0.15683,0.04815,-0.2838,-0.20547,-0.11243,0.03265,-0.08927,-0.32812,-0.02428,-0.31907,-0.22153,-0.04622,0.02064,0.39039,-0.21805,0.24757,0.03282,0.1929,-0.24518,-0.25542,0.32603,-0.18064,-0.08493,-0.09067,-0.09241,-0.01359,0.09736,-0.05042,-0.10468,-0.37517,0.01674,-0.18288,-0.09541,0.11833,-0.16126,-0.06208,-0.13672,0.21402,0.09203,0.39927,0.07496,0.06278,0.0395,-0.17931,0.05654],[0.10541,-0.10373,0.01029,0.36761,-0.30545,-0.17766,-0.02482,-0.10012,-0.42417,-0.18721,0.14735,0.01039,0.03289,-0.24237,0.10077,-0.03217,-0.05773,-0.2553,-0.04262,-0.16813,-0.21143,0.07696,0.03258,-0.20404,-0.0227,-0.10908,-0.3481,-0.02886,0.02399,0.05792,0.37024,-0.27195,-0.00302,0.35133,-0.08432,0.01694,0.08241,-0.04836,-0.22345,0.10682,0.06603,-0.13466,0.01841,-0.08429,-0.18806,0.11352,-0.27555,0.14376,0.11166,0.05531,-0.06908,-0.1473,-0.22803,-0.17486,0.04888,-0.14915,0.15112,0.10284,-0.10189,0.11625,0.13638,0.13851,-0.30974,-0.1391,-0.08236,-0.0545,0.1705,0.24229,0.00058,-0.03511,0.09372,0.0032,0.3881,-0.04903,0.11832,0.10564,0.29476,-0.02101,0.09842,0.21328,0.08266,-0.20506,0.19037,-0.0024,-0.22235,0.10706,-0.0657,-0.03364,-0.1692,-0.03366,0.23927,0.20827,-0.0494,-0.05504,0.08809,0.16841,-0.25118,-0.02801,0.16717,-0.0117,0.08924,0.08671,-0.00034,0.54651,0.04919,-0.28591,-0.21095,-0.1189,-0.11751,-0.10135,-0.07905,0.06156,-0.15078,0.17574,0.27087,-0.03076,-0.02012,0.1198,-0.09182,-0.12061,0.02192,0.07182,-0.1799,-0.07654,0.15849,0.11479,-0.00927,-0.20776],[-0.18166,-0.00869,-0.07533,-0.04021,-0.21204,0.09095,0.1622,-0.08391,0.17585,0.04612,-0.1088,0.008,-0.10824,-0.13117,0.1754,0.12563,0.09607,-0.03748,-0.03237,0.06059,0.46007,-0.30234,0.11739,0.0343,0.00215,0.20329,-0.06913,-0.0212,0.24631,-0.07034,-0.11224,0.24804,0.10252,0.03663,-0.252,-0.12053,0.20223,0.08335,-0.16053,-0.05555,0.37693,-0.18903,-0.07613,0.29492,-0.16407,-0.23779,0.06048,-0.03166,-0.20658,-0.11815,0.09609,0.0323,0.22008,4e-05,-0.26014,-0.03645,0.02076,-0.00164,-0.14161,-0.14927,-0.15718,-0.20834,0.03673,-0.07505,-0.07132,-0.14604,0.09749,0.31277,-0.10619,0.06923,0.06768,0.22374,-0.40006,0.10896,-0.00134,-0.15665,-0.25322,0.24395,-0.15468,-0.1206,0.10334,0.05679,-0.03865,-0.00158,0.20202,-0.01283,0.06591,0.09611,-0.46491,0.31404,-0.01446,-0.11136,-0.09598,-0.40991,-0.20092,0.0286,0.15309,0.12223,-0.08109,-0.19304,-0.00711,-0.10565,0.23006,-0.02623,0.23126,-0.10164,-0.06229,-0.10644,0.09976,-0.04546,0.1064,0.12324,0.12724,0.17671,-0.04069,0.07845,-0.19012,-0.07438,0.15404,-0.13652,-0.24094,-0.26733,0.14784,0.09956,0.02968,0.07808,-0.18985,-0.04808],[-0.17547,0.25355,-0.24507,-0.02131,-0.28887,0.01064,0.10574,0.13452,-0.22286,-0.21081,-0.26109,0.25792,0.1728,-0.28154,-0.14841,-0.20688,0.01902,0.08613,-0.00887,-0.20813,0.00034,0.11231,0.37065,-0.02966,0.06292,0.13193,-0.27566,0.34079,0.19398,-0.2414,0.26368,-0.04115,0.12155,0.17145,0.18924,0.12477,0.14531,-0.10963,0.12145,-0.036,-0.31762,-0.0066,0.10513,-0.16824,-0.23574,-0.13759,0.1634,-0.04964,-0.27264,0.00489,0.02468,0.21614,0.00292,-0.06596,0.02913,0.08888,-0.11705,0.20868,0.0404,0.24041,-0.09163,-0.01369,-0.18589,-0.16125,-0.15194,0.10446,-0.08001,0.04816,-0.08503,0.03281,-0.09754,0.09957,0.10099,-0.00654,0.2137,-0.20013,0.20682,-0.12684,-0.20955,-0.13861,0.11591,-0.48435,-0.15653,0.32411,-0.26606,0.32113,-0.11074,-0.17041,0.12076,-0.20503,-0.11301,0.26963,0.00747,-0.0807,0.03504,-0.04405,-0.47004,0.05378,0.04403,0.31316,0.09146,0.25383,-0.01579,0.04105,0.11194,0.39939,-0.02793,0.03442,0.26623,-0.11829,-0.07204,-0.12052,-0.08393,0.12778,0.07761,0.01208,0.2647,0.08688,0.10163,-0.01371,-0.1818,-0.40479,-0.11733,-0.23823,-0.08745,0.11534,0.00186,-0.04557],[0.13366,-0.2864,-0.14732,-0.05035,0.1055,0.4426,0.12007,0.07804,0.18995,0.12335,0.03175,-0.22048,-0.13879,-0.2211,-0.04122,-0.0416,-0.19346,0.05745,-0.15573,-0.1101,-0.13062,0.12194,-0.14777,0.09187,0.23871,0.05869,-0.01594,0.21161,0.20324,-0.14179,-0.03334,-0.15322,0.11612,0.08462,0.25223,-0.17413,-0.11226,-0.03231,0.25476,-0.0558,-0.15348,0.27974,0.00565,0.05567,-0.1379,0.19575,0.15004,-0.02479,-0.06529,0.03106,-0.00032,0.22975,-0.00243,0.12103,-0.09641,0.13143,-0.09506,0.12423,0.08993,-0.24427,-0.12061,0.0239,-0.13424,0.14958,-0.02212,0.23534,0.16089,-0.23337,-0.01622,0.30504,0.24421,-0.06592,-0.09276,-0.08003,0.21971,-0.2819,-0.24186,-0.01025,-0.10065,-0.00563,0.27766,-0.03071,-0.10708,0.31207,-0.06483,-0.12268,-0.332,-0.19943,0.22911,0.47765,-0.19109,0.26481,-0.27833,0.08274,0.30803,0.08118,0.05833,-0.11293,0.0019,-0.1895,-0.17431,0.28077,0.00372,-0.261,0.15307,-0.20433,-0.10379,0.03089,-0.27292,-0.25512,0.27685,-0.14,-0.03413,-0.12332,-0.25632,-0.00669,0.13148,0.0001,-0.18473,-0.2655,0.10137,-0.15424,0.05646,-0.22968,0.04143,0.05609,-0.07093,0.02228],[0.00684,0.17736,0.11743,0.15936,-0.08675,0.03892,0.21354,0.54636,0.10479,0.01084,-0.35326,-0.06155,0.06043,-0.16115,-0.48006,-0.03772,0.10526,-0.08379,-0.14393,-0.14794,0.21959,0.13163,0.1015,-0.28467,0.22185,0.02967,-0.23956,0.32509,0.00698,-0.08146,0.05237,-0.13591,0.01282,-0.08263,-0.21146,-0.06447,0.03246,-0.16676,-0.06304,-0.04601,-0.09107,-0.15965,0.11277,-0.23582,-0.05237,0.13546,-0.17463,-0.18557,0.20483,-0.18942,-0.09464,-0.32909,0.26331,0.48715,-0.09423,-0.05409,0.0306,-0.10179,0.18816,0.04201,0.02112,0.02722,-0.16211,0.19502,0.24028,-0.18777,0.09527,0.04066,0.0024,-0.01935,-0.08894,-0.10976,0.21448,-0.16671,0.14233,0.09917,-0.079,0.05871,-0.15953,-0.21312,-0.05206,0.05575,0.31745,-0.30723,-0.30896,-0.16344,0.07389,0.01486,0.10976,-0.16793,0.01976,-0.17809,-0.32888,0.19447,0.1844,-0.04664,-0.06861,0.22419,-0.05889,0.26369,0.11269,-0.37559,0.24308,-0.14605,0.08075,0.01008,-0.31077,-0.262,-0.11663,-0.15868,0.18953,0.02877,-0.07694,0.32759,-0.01965,0.02264,0.2612,0.1341,0.16731,-0.15913,-0.12886,-0.18135,0.01794,0.23339,0.0869,0.00425,-0.14039,-0.06506],[-0.19349,0.06769,-0.24621,0.06928,0.12847,0.01611,-0.26271,-0.14035,0.04101,-0.06145,-0.07702,-0.22097,0.19898,-0.02723,0.22128,0.24635,-0.06056,-0.10808,0.20104,0.08491,0.01169,0.01498,-0.28437,0.27499,0.11571,-0.02947,0.16282,-0.07441,0.0352,-0.21117,-0.11508,-0.00498,0.1334,-0.3088,-0.23963,-0.42868,-0.07521,-0.46861,-0.46348,0.02961,-0.18771,-0.01647,0.18634,-0.12196,0.06744,0.34466,0.17558,0.01433,-0.03853,0.16308,-0.08052,-0.24213,-0.2558,0.06469,0.22683,0.1859,0.10777,-0.27381,0.04927,-0.07264,-0.11202,-0.1141,0.18589,0.0542,0.03452,0.32211,0.09984,-0.12085,-0.02519,0.03349,-0.10215,-0.03057,0.01311,0.16538,-0.07583,-0.07533,-0.00857,-0.10027,-0.18085,-0.22988,0.09451,0.28222,0.10241,0.09604,-0.16718,-0.05474,0.32027,-0.07524,0.22274,0.22101,-0.09476,-0.05992,0.03055,0.13167,0.27405,-0.24365,-0.23878,-0.00864,-0.07324,0.0022,0.13116,-0.11534,0.12074,0.07832,-0.11137,0.12876,0.30525,-0.00237,0.04776,0.06937,-0.33703,-0.19197,-0.00736,0.0553,0.20114,0.31863,0.07198,-0.2011,0.10943,0.4093,0.38499,-0.36529,0.02003,0.13097,-0.11597,-0.26507,0.05536,-0.10772],[-0.0367,-0.00173,0.03313,0.21107,0.00933,0.32714,0.18045,0.05583,-0.1752,0.2602,-0.15745,0.13793,0.08865,-0.12294,0.16933,0.38149,0.23321,0.13154,0.3407,0.063,-0.23912,-0.11851,0.06959,-0.177,-0.22424,0.1436,0.03276,-0.03666,-0.0028,-0.11541,-0.10039,-0.08708,0.18673,-0.15709,0.03323,-0.29355,-0.35208,0.19304,-0.2501,0.02726,-0.09442,0.22393,0.00324,0.01836,-0.05261,-0.20524,0.21869,0.06232,0.03089,-0.05715,0.20032,-0.22277,0.09586,0.07721,-0.04709,-0.01736,0.0485,0.22397,0.03308,0.14291,0.06317,-0.27594,0.23901,0.16916,-0.3554,0.15305,0.04539,0.00266,-0.07447,0.08439,0.09612,-0.00792,0.06014,0.12898,-0.32174,0.01047,0.39407,0.2159,-0.16756,-0.04863,-0.01605,0.20067,0.03082,-0.03588,-0.02023,0.06443,-0.18791,-0.03269,0.00637,0.24367,-0.00975,-0.11627,-0.04766,0.10276,-0.15025,-0.01795,-0.02299,-0.29329,0.12022,0.0283,0.1304,-0.29731,-0.09166,0.07262,-0.13621,-0.07485,0.18054,-0.19674,0.0491,-0.0482,0.03221,-0.11798,-0.07011,-0.00863,0.06102,-0.08954,0.1873,-0.0788,-0.06104,-0.43682,0.45487,0.33407,-0.01541,-0.00223,-0.06236,0.00033,0.21459,0.2205],[0.07821,0.04076,-0.08471,-0.13863,0.0633,-0.0494,-0.01107,0.01485,0.08715,-0.09134,-0.26942,-0.24001,-0.07624,0.08805,0.00249,-0.02249,-0.3224,-0.02378,0.00809,-0.15769,0.04778,-0.31634,-0.07481,-0.06142,-0.15807,0.05695,0.02091,-0.02353,0.16295,-0.00554,-0.42702,-0.02367,0.1048,0.00095,-0.1825,0.30856,0.29453,0.0919,-0.22256,-0.16018,-0.08871,0.13059,-0.00073,0.14633,-0.00995,0.20166,-0.02723,0.24495,0.22562,0.00057,0.1358,0.00739,-0.20352,0.09479,-0.03314,-0.0883,0.19126,-0.1953,-0.31433,-0.19242,0.02597,-0.17745,-0.24312,0.05639,0.14178,-0.13006,-0.0081,-0.14498,0.13857,0.00639,-0.21629,-0.07601,0.13337,0.03623,-0.08213,0.26865,-0.04147,0.18496,-0.02856,-0.0245,0.00105,0.00987,0.13723,-0.16418,0.30875,-0.05258,-0.04347,-0.07824,-0.19445,-0.23493,0.10666,0.08322,0.03493,-0.02017,0.00296,0.19937,0.17576,-0.29378,0.32492,0.19937,0.24065,-0.07275,0.09359,-0.23421,0.06444,0.17895,-0.06124,0.14459,0.10724,0.19513,0.10969,-0.43818,0.04821,-0.04371,-0.16183,-0.32495,-0.08104,0.17763,0.06675,-0.06497,-0.23009,-0.34539,-0.17296,0.12315,-0.26635,0.21929,0.02676,-0.02023],[0.08519,-0.10456,-0.26273,-0.18222,-0.23104,-0.13541,0.07185,-0.05358,0.19817,0.38311,-0.14665,0.27177,0.01666,-0.1474,0.42105,-0.23163,-0.07812,-0.01125,0.18929,0.10338,0.04517,0.07681,-0.13607,-0.22596,0.1266,0.36183,-0.01974,0.11624,-0.19943,0.45006,-0.11679,0.07011,0.11619,0.10694,0.01319,0.13032,0.27729,-0.14498,-0.0784,0.12274,0.04785,-0.00754,-0.10445,-0.20053,0.22993,-0.11218,-0.12509,-0.08014,-0.11631,-0.19876,0.30026,0.08603,0.24771,-0.12266,-0.05379,-0.04269,0.14552,0.16112,0.08351,-0.19189,0.35891,0.16819,0.15145,0.02559,0.00601,-0.16121,-0.286,0.40842,0.0482,-0.12919,0.17807,0.24671,-0.04196,-0.19555,0.1385,0.25556,0.11146,-0.14995,0.0841,-0.2914,0.11879,0.04475,-0.12985,-0.14549,0.3036,0.15457,0.03856,-0.2267,0.0133,0.05808,-0.15699,-0.23949,0.07054,-0.03355,-0.16537,-0.05513,-0.0985,-0.0264,0.04143,-0.12589,-0.22653,0.32348,0.0054,0.24777,0.07186,-0.05387,0.02822,0.12801,0.23831,-0.20211,-0.13063,-0.15911,-0.21303,0.03891,0.11202,0.22417,-0.1184,-0.07731,-0.10873,0.03769,0.27133,-0.05082,0.01644,0.1631,-0.29278,-0.25429,0.08603,-0.07779],[-0.12153,-0.00721,0.1056,0.04746,-0.27007,0.14703,0.32395,0.24484,-0.01613,-0.0407,0.10503,0.35313,0.25769,0.21967,0.18459,0.1677,0.21186,0.08664,-0.06199,0.22356,0.15413,-0.29555,-0.14616,-0.32125,0.21617,0.12523,-0.02002,-0.32584,0.08713,-0.17837,0.32992,0.06329,-0.05759,0.25663,0.04099,0.14178,0.02093,0.27052,-0.21525,0.34431,-0.05905,-0.02127,0.13839,-0.31488,0.11773,-0.07382,0.19803,-0.06066,0.1745,0.17534,0.03021,-0.25794,0.22139,0.00822,0.19341,0.13149,-0.02635,0.13782,0.2028,0.23965,-0.05167,0.08561,0.02116,-0.12964,-0.01169,-0.19213,0.24587,0.06268,-0.06658,0.1554,0.03962,0.33359,0.14075,0.02122,0.09553,0.18187,-0.06897,-0.23914,-0.08997,0.0207,0.2699,0.04618,0.1181,0.36854,0.15233,0.28694,-0.17033,-0.19714,0.31758,0.06924,-0.1248,0.08824,0.32453,0.10633,-0.33604,-0.01286,0.13194,-0.1404,0.01173,-0.14085,-0.17807,-0.25063,-0.01003,-0.11204,-0.00047,0.12195,-0.23211,-0.10168,0.0983,-0.02738,-0.01893,-0.33131,-0.04763,-0.06755,-0.03219,-0.09953,-0.13548,0.01753,0.26926,-0.27486,-0.26744,-0.21246,0.0402,-0.04083,-0.07788,0.00121,0.23023,-0.14284],[-0.0171,0.23858,-0.06366,-0.27637,0.26924,0.14246,0.2582,-0.07981,-0.05097,-0.303,-0.12969,0.03121,0.04121,0.04526,-0.26282,0.02594,0.01996,0.23324,0.14737,-0.06836,0.16581,-0.07117,0.04983,-0.06522,0.03995,-0.19449,-0.144,0.20899,0.2327,0.00956,-0.16969,0.09,-0.1566,0.16638,-0.25336,0.12713,-0.20777,-0.49522,0.00046,0.14986,-0.16855,0.08206,-0.27332,0.03217,0.17649,0.09469,-0.1983,0.11972,0.12961,-0.12138,-0.02408,0.08863,0.15951,0.13048,-0.01267,0.09658,0.07112,0.09687,-0.03666,0.34361,0.01271,-0.38896,0.0461,-0.16092,0.00959,-0.05502,-0.07692,0.11571,0.34455,0.24353,-0.13076,-0.0495,-0.13328,-0.13084,0.13615,-0.09416,-0.17149,0.08271,0.09741,0.37748,-0.33988,0.00584,0.13064,-0.22208,-0.13368,-0.1924,-0.13218,0.15084,-0.10741,0.31202,0.01953,-0.15486,0.23652,0.29434,0.03349,0.23539,-0.09202,-0.06351,0.04843,-0.10181,-0.14281,-0.37902,-0.27154,-0.16564,-0.1244,0.04198,-0.30297,-0.00269,-0.2641,0.10993,-0.24677,-0.12178,0.21245,0.27537,-0.10317,-0.16972,0.31377,-0.00526,0.02824,-0.00321,-0.049,0.03586,0.23779,-0.1562,-0.00128,-0.07528,0.13007,-0.26182],[-0.02688,-0.17091,0.11678,-0.17577,-0.05964,0.05595,0.37354,0.44271,-0.08035,-0.80008,0.13647,-0.25784,0.16258,-0.09527,-0.16056,0.26865,0.22875,0.2015,0.02789,-0.23764,0.01465,0.08125,0.25103,-0.13626,-0.02944,0.28195,0.17464,0.03266,-0.17235,-0.41343,0.09919,0.41546,0.15691,-0.02264,0.04206,-0.13638,0.01837,0.05641,0.01553,0.11797,-0.05555,-0.02592,-0.03102,-0.26168,-0.10679,0.20243,-0.13679,-0.17082,-0.20756,0.24723,0.07716,0.12094,-0.131,0.04247,0.19009,-0.04271,-0.21642,0.11939,0.22513,0.02023,-0.17413,0.08052,0.18445,0.05455,0.10708,0.08894,-0.19359,-0.00551,0.18061,-0.0553,-0.12184,0.13692,0.22892,0.08495,-0.18284,0.00233,-0.23767,0.11236,0.03143,0.18427,0.16114,0.31262,0.0029,0.10805,0.16073,0.11201,0.33735,0.05289,-0.00876,-0.04942,-0.2079,-0.04653,0.06281,-0.19455,-0.16119,-0.44467,-0.19695,-0.1422,-0.072,0.16043,-0.11117,0.25166,0.20795,-0.44948,-0.07762,0.16922,-0.03044,-0.06823,0.00728,0.03101,0.04596,0.02067,0.23537,0.23299,0.11429,-0.22511,-0.07152,0.21667,0.15542,-0.05845,0.1723,0.14428,-0.13611,0.2093,0.0331,0.21215,0.04401,0.01109],[0.18146,-0.10605,0.01364,-0.0685,0.06108,-0.02126,-0.05403,-0.15198,0.14838,-0.06937,0.13229,-0.03903,-0.1688,-0.03313,-0.03592,0.2088,0.05554,0.19081,-0.09571,0.22456,-0.02026,0.10226,-0.27747,0.0212,0.23166,0.1485,0.0994,-0.18618,0.1826,0.05814,0.046,0.04424,-0.21385,-0.28962,-0.16326,0.07095,-0.35847,0.08796,0.20349,0.00347,0.07112,0.0389,0.26905,0.15752,0.12254,0.14304,-0.19013,-0.00083,-0.26937,0.09279,0.00564,-0.27635,0.04036,0.2245,0.35465,0.05165,-0.11368,-0.23553,0.10047,-0.26631,-0.09441,-0.05734,0.16824,-0.05152,-0.05569,-0.14378,0.18286,-0.11588,-0.13773,-0.03353,-0.06918,-0.07876,0.06564,-0.10943,0.12457,-0.17232,-0.25614,0.01853,0.05455,-0.03568,-0.09872,-0.08448,-0.10342,-0.0526,-0.05856,0.07807,0.044,-0.16479,-0.29478,-0.25994,0.11943,-0.00282,0.01782,0.03188,0.29547,-0.06569,-0.02073,-0.25816,0.3014,0.22887,-0.17808,0.17817,-0.21041,0.11083,-0.01741,-0.02237,0.11018,0.04286,-0.07749,-0.28106,-0.02915,0.02809,-0.15656,-0.27183,0.06029,-0.07824,0.10552,0.03181,0.16686,-0.02319,-0.00454,0.17506,0.01858,0.11145,0.0613,0.02633,-0.23788,-0.13535],[0.25095,-0.09248,-0.01536,-0.18329,-0.23764,0.21023,0.05187,-0.08795,-0.15579,-0.08235,-0.07158,-0.05627,0.05845,-0.12315,0.00184,0.03328,-0.17533,0.44274,-0.09602,0.06895,-0.1368,-0.24519,0.11952,-0.01202,-0.20313,-0.01335,0.20221,-0.13447,0.06502,-0.02392,0.1104,0.06198,0.14331,0.36228,-0.05957,-0.0174,0.0097,-0.26772,0.25287,-0.24235,0.11809,0.02754,0.18118,0.00719,0.03887,0.13269,0.15515,0.23322,0.01497,0.08167,0.00181,0.33467,-0.12852,-0.49204,0.28005,0.24252,0.22953,-0.09516,0.00747,0.25441,-0.18792,0.12107,0.24678,0.06647,-0.12326,-0.16119,0.195,-0.0367,-0.03498,0.00138,-0.16823,-0.20719,0.03117,-0.12029,-0.21786,-0.16735,-0.09786,0.31619,-0.14698,0.22918,-0.00059,-0.05272,0.29514,-0.28233,-0.2074,0.16165,-0.18931,0.40775,0.07289,0.26083,-0.16548,-0.149,-0.10963,-0.20227,0.04431,-0.12868,0.28268,0.33463,-0.08392,0.28279,-0.30553,-0.39629,-0.11492,-0.03752,-0.42893,-0.33494,0.01814,0.08341,-0.12861,0.40249,-0.04742,-0.14961,-0.01529,0.30052,-0.2871,0.23284,0.26166,-0.29005,0.10727,-0.32845,0.25249,0.62519,-0.00949,0.19524,0.21623,-0.06983,-0.38461,-0.06045],[0.02128,-0.0027,0.14637,-0.05495,-0.15745,0.08118,-0.07465,0.02052,0.11758,-0.03175,-0.01944,0.04148,-0.36132,-0.00564,-0.10347,0.01992,-0.0516,0.27876,-0.12749,-0.11924,0.22939,-0.33467,0.06231,0.20658,0.09059,-0.33707,0.4314,0.03282,-0.08962,-0.04385,0.13898,-0.21473,0.18128,-0.18902,0.34319,0.11918,-0.19593,0.37908,-0.06902,0.02263,0.21969,-0.02146,0.07123,-0.22813,0.35013,0.25534,0.18317,0.07571,0.15477,0.2421,-0.3109,-0.17185,-0.02304,-0.32477,-0.18005,0.12291,-0.06608,0.27764,-0.05418,-0.0724,-0.05566,-0.12001,0.01081,-0.01134,0.01548,0.19359,-0.33899,0.28513,0.13227,0.05156,-0.13438,-0.132,-0.22321,-0.05756,0.16837,-0.30801,0.25491,0.29413,0.2806,0.11389,-0.11375,-0.06097,0.17822,0.25858,-0.09189,-0.06788,0.14919,0.11852,-0.2334,0.01615,0.00549,0.17112,-0.01423,0.03052,-0.04074,-0.08241,-0.60374,-0.10988,-0.15452,-0.01364,-0.20277,0.08544,-0.1333,0.21687,-0.11331,-0.13731,0.00713,-0.21876,-0.16537,-0.11923,0.08128,-0.0581,-0.12051,-0.1722,-0.1583,0.05798,-0.00206,-0.28259,0.42739,-0.1784,0.22195,-0.01736,-0.10846,-0.23387,0.01525,-0.05776,0.16945,0.00603],[-0.03759,0.03492,-0.02409,-0.25324,-0.12576,-0.24006,0.05808,-0.00132,-0.15978,-0.13601,0.02235,0.27493,-0.02427,-0.18648,0.40685,0.05551,0.03917,0.03445,0.05839,-0.35173,0.03643,-0.12181,-0.17864,0.24492,-0.07353,0.09056,-0.00919,-0.05555,0.00455,0.01164,-0.25643,0.05238,0.00109,-0.13724,0.01031,-0.37531,0.02675,-0.2092,-0.0018,0.41074,-0.16796,-0.07543,-0.09687,0.05226,-0.42583,-0.36363,0.02549,-0.14184,0.10335,0.08285,-0.08557,0.1413,-0.35305,-0.00235,-0.1835,0.23616,-0.10185,-0.02983,0.09184,0.26728,-0.01833,0.1408,-0.22102,-0.39538,-0.14427,0.27159,-0.01614,0.09945,-0.05319,-0.0651,-0.03416,0.2001,0.07648,0.01367,0.15408,-0.18677,0.03674,-0.17119,-0.04447,-0.05669,0.0012,0.39035,-0.12732,0.27127,0.38823,0.14259,-0.21109,-0.24358,-0.24267,0.05199,0.19398,-0.1493,-0.06437,0.09959,0.07126,0.03425,0.2048,-0.56646,0.07885,0.04811,0.18067,-0.15555,-0.31604,-0.21308,0.15359,0.0017,0.06982,-0.13878,0.20681,0.08581,0.20306,-0.20592,-0.17332,0.34417,-0.00035,-0.0563,0.07062,-0.04541,-0.03343,0.10752,0.10127,-0.05589,0.08339,-0.22475,-0.06839,0.06758,0.04518,0.17453],[-0.0512,0.20049,-0.00302,0.12419,0.06232,-0.13305,0.2424,-0.05825,0.03929,0.01715,-0.39617,0.04388,0.20772,0.10184,-0.28403,0.1518,-0.07604,0.24351,-0.12112,-0.03852,-0.00753,0.24609,-0.07506,0.2197,0.04091,-0.00108,0.28636,0.04114,0.16555,-0.04963,0.03775,-0.02401,-0.14375,0.18803,0.24886,0.02416,0.09883,-0.12603,0.15345,-0.1175,-0.17432,-0.03856,-0.06092,-0.12858,-0.19065,-0.07011,0.29904,0.20224,-0.26821,0.01429,0.1532,0.14876,0.02712,-0.01549,-0.06145,-0.01454,0.06687,0.34133,0.14586,-0.23984,0.12516,-0.29475,0.14104,-0.01762,-0.06906,0.00625,0.06985,0.02681,0.18578,0.13789,-0.12482,-0.02341,-0.03141,0.05616,0.01095,0.18883,0.03517,0.256,-0.16427,-0.07058,-0.09504,0.0092,-0.09665,0.07669,-0.24429,0.32397,0.18188,0.20045,0.30453,-0.21493,0.07509,-0.03281,-0.08621,-0.06772,-0.04232,-0.25185,-0.08989,0.03454,0.10512,-0.09934,-0.21077,0.02069,0.03509,0.03899,0.18398,0.05314,0.33895,-0.13505,-0.09124,-0.14212,0.05924,0.18304,0.02756,0.2834,-0.09407,-0.39117,-0.38899,-0.02691,0.09126,-0.44103,0.06716,-0.03839,0.23263,-0.19929,0.14785,-0.12699,0.1547,0.25487],[0.52037,0.15787,0.11281,0.01263,-0.09905,0.14435,0.04468,-0.11975,0.05802,-0.10639,0.14314,-0.12659,-0.11981,-0.0728,-0.32493,-0.17001,-0.04543,0.02272,0.15493,-0.20106,-0.32286,-0.41068,-0.38726,-0.04295,-0.16705,-0.16701,-0.19978,-0.21925,0.17774,0.03973,-0.14079,0.10893,-0.08712,-0.09909,0.16196,-0.26473,-0.09204,0.03945,-0.35819,0.15575,0.02789,-0.04622,0.31411,0.12307,-0.33906,0.19931,-0.00931,0.04324,-0.05751,-0.06657,0.02143,0.18368,0.1615,-0.13578,-0.04846,-0.29941,-0.0193,0.12866,-0.2605,-0.09755,-0.13946,-0.11354,0.10885,0.04022,0.27579,-0.14832,0.00645,0.09139,0.03123,-0.08381,-0.04196,0.04332,0.41792,-0.20939,-0.0712,0.07348,0.17979,-0.01532,-0.23448,0.09032,-0.01638,-0.0408,0.09938,0.14857,0.14333,0.007,0.01884,-0.07934,-0.00526,-0.06865,0.04237,0.28003,-0.31081,-0.03599,-0.11751,0.05609,-0.12292,0.06592,-0.10526,0.22544,-0.0165,0.04606,-0.17514,-0.06148,-0.23582,-0.17358,0.12644,0.0844,0.13895,0.01287,0.06691,0.25673,0.15959,-0.21284,-0.06323,-0.06055,0.0266,-0.12232,-0.43557,-0.2096,0.08043,-0.15834,0.29085,0.02745,-0.27094,-0.24329,0.11298,0.00748],[0.11336,0.13291,-0.17665,-0.38515,-0.22766,0.35304,0.09404,-0.27451,-0.00425,-0.07374,-0.06544,-0.16668,0.05771,-0.15181,0.25295,0.12372,0.1561,-0.02454,-0.24392,0.07441,0.09146,-0.32874,-0.00811,0.17116,0.24651,0.10443,0.08347,-0.18605,-0.09048,0.15536,0.17163,-0.02698,0.03618,-0.25694,0.11961,-0.06844,0.19517,-0.00633,-0.16681,-0.19064,0.12402,-0.25928,0.15098,-0.11048,-0.01806,-0.1012,0.17091,-0.13866,0.10296,-0.19473,0.17461,-0.16502,0.07878,0.07834,0.00993,-0.06075,0.07954,-0.38447,0.07263,-0.12061,0.11329,-0.052,0.09655,0.04927,0.09407,0.06614,0.03674,0.05838,-0.1138,0.18346,-0.3065,-0.45387,-0.21719,-0.19226,-0.05318,0.07029,0.18977,-0.23811,-0.13827,-0.04561,-0.08112,-0.15015,0.21059,0.28016,-0.21562,0.15903,-0.07333,0.22433,0.02477,0.01952,0.1179,0.13391,-0.17321,-0.1762,0.01468,0.06849,0.18474,0.00915,-0.04507,0.23148,0.20133,-0.10092,-0.29401,0.07438,0.22975,0.04911,0.00492,-0.32529,-0.16473,-0.05984,0.00733,-0.02721,0.27587,-0.24449,0.04897,0.45094,0.23237,0.14418,0.15233,0.12993,0.10458,0.0567,-0.17226,0.14604,0.02584,0.28057,-0.19612,0.14735],[-0.13763,-0.28785,-0.04549,-0.10062,0.1605,-0.01445,0.0967,0.07027,0.17204,0.07132,0.4482,-0.0126,0.01382,0.18821,0.3228,0.22972,0.27271,-0.23382,-0.06702,0.31466,-0.034,0.20643,0.0478,0.10565,-0.01484,-0.20884,-0.02747,-0.30461,-0.08137,-0.22698,0.06917,0.17659,-0.02609,0.18239,-0.04968,-0.40906,0.0762,-0.23433,0.05666,-0.1369,0.17582,0.20245,0.12063,-0.07085,0.08711,-0.31807,0.01931,-0.01885,-0.0248,0.01789,0.10656,-0.08868,0.05243,-0.13715,0.26296,0.00052,0.05014,-0.10426,-0.12937,0.15494,-0.06854,0.22069,-0.24857,0.07544,-0.0798,-0.59727,0.21206,-0.22517,0.14255,-0.00961,0.16058,0.26078,-0.02467,0.13931,-0.23513,0.05719,-0.08751,-0.23117,0.17487,0.02564,-0.25935,-0.0425,0.19326,0.26444,-0.22018,-0.36309,-0.07348,0.19317,-0.06449,-0.05355,0.26411,-0.02382,-0.14043,-0.03452,-0.2137,0.08167,-0.02544,-0.14073,0.25933,-0.18445,0.03822,0.15992,-0.02713,0.12128,-0.28828,-0.04106,-0.1485,-0.24559,-0.07432,0.0816,-0.04541,-0.18531,0.0338,-0.08278,-0.41974,0.0407,-0.08385,-0.04557,0.00329,-0.03389,-0.25287,-0.21,0.26988,-0.0073,-0.01147,-0.32245,-0.17311,0.16192],[0.06895,0.28224,-0.0103,0.02507,0.01874,-0.05928,-0.07227,-0.31154,-0.116,0.02872,-0.0225,0.029,-0.04558,0.02104,0.01043,-0.08351,-0.06858,0.24148,0.04902,-0.09951,-0.2913,0.19488,-0.05304,-0.21834,-0.09007,0.0177,-0.22183,-0.1644,-0.18101,0.0524,-0.21276,-0.43332,-0.12871,0.27842,0.02597,-0.12361,-0.1031,0.20635,-0.0937,0.03579,0.12207,0.01494,0.13752,0.42508,0.16416,-0.09329,0.35418,0.11764,-0.24541,0.16488,-0.30401,0.20108,0.09443,-0.02917,0.20025,0.12411,0.13375,-0.17158,0.04195,0.21494,0.03807,0.05416,-0.20889,0.13603,-0.11034,-0.01505,-0.15309,-0.22084,0.01371,-0.06224,0.07659,0.34545,0.07498,-0.10252,0.17214,0.07427,0.14139,0.0318,0.01851,0.03498,0.0671,0.03321,0.08513,-0.30497,0.13089,-0.15886,0.26349,0.16207,-0.14896,0.18255,-0.21096,0.10048,-0.29106,-0.15642,-0.03542,0.34424,-0.24938,0.068,0.06338,-0.05067,0.05418,0.07907,0.05049,0.12803,0.1889,-0.18798,-0.27635,0.46341,-0.02307,-0.06852,0.21679,-0.33024,0.17298,0.05093,-0.08058,-0.00531,-0.17482,-0.15428,0.08978,-0.19466,0.03271,-0.15159,-0.0767,-0.10956,0.08056,0.16432,0.20061,0.04882],[-0.01662,-0.03888,0.04437,-0.03177,-0.2937,-0.14143,0.10069,-0.00576,-0.0651,-0.11633,-0.2852,0.15027,-0.04799,-0.26212,0.0242,-0.06834,-0.23298,-0.0134,0.01718,-0.02858,-0.05517,-0.00709,0.01786,-0.02741,-0.30904,0.07025,0.08776,0.29907,0.00938,-0.07911,-0.20007,-0.36883,-0.0386,-0.17238,0.00326,0.13159,0.10849,-0.09605,0.07898,0.0899,-0.00846,-0.15058,0.04671,-0.20243,-0.1097,-0.01963,-0.10267,0.08136,-0.13214,0.21932,0.13389,0.0381,-0.09094,-0.04336,0.06948,0.14394,0.20998,0.08363,0.1132,0.09325,-0.30505,-0.01583,-0.10564,-0.1572,-0.12212,0.04876,0.05795,-0.49721,0.05346,0.15066,0.02785,0.25364,0.09111,-0.14135,-0.14458,-0.11675,-0.33663,0.1146,-0.30246,0.15075,-0.06433,-0.0379,0.14338,0.11934,-0.22783,0.13656,-0.16982,-0.25392,-0.15475,0.03403,0.09997,-0.02592,-0.08139,-0.04959,0.10868,0.26028,0.15868,-0.07871,0.19175,-0.05531,0.24525,0.07625,-0.02042,0.05542,-0.15459,0.12454,-0.15089,0.41321,0.03266,-0.252,-0.11719,-0.08769,0.01662,0.44331,0.01535,0.47757,-0.05943,0.13244,-0.30256,-0.34037,-0.08121,-0.04347,0.0954,0.21287,-0.16533,-0.04424,0.1903,-0.04351],[0.02929,-0.0323,0.20863,0.1457,-0.23744,-0.04779,0.19546,0.24898,-0.09982,-0.00768,0.10821,-0.29358,0.19405,-0.26911,-0.34911,0.03747,0.19789,0.40423,-0.11372,-0.30474,0.10967,-0.33559,-0.19386,-0.05479,0.13384,-0.08812,-0.01145,0.07363,-0.4251,-0.28743,0.26617,0.29888,-0.24763,-0.08811,0.05347,0.1463,0.07856,-0.1956,-0.22724,-0.00543,0.34078,0.17985,0.10965,-0.25943,0.09663,-0.00601,-0.1784,0.09699,-0.18083,-0.03361,0.21133,-0.02926,-0.08588,-0.22276,0.03705,-0.36679,0.11307,0.29114,-0.13965,0.18206,-0.08967,0.08269,-0.02079,0.00268,0.01149,0.11885,-0.17559,-0.03405,0.04698,-0.05351,0.17653,-0.10003,-0.268,0.05987,-0.22986,-0.23482,0.19879,-0.07062,-0.43055,0.03013,-0.14506,-0.02665,-0.02212,-0.15624,0.07586,0.22367,0.12368,-0.30427,-0.01464,-0.46679,0.08642,0.09281,0.36589,-0.1721,0.15568,0.14104,0.06165,0.0183,-0.12058,-0.1205,0.13498,-0.11816,0.26418,0.03788,-0.13609,0.16689,-0.06834,0.0672,0.03891,-0.02789,0.0173,0.16273,-0.25319,-0.06203,-0.2262,0.22666,0.1256,0.27789,-0.21288,0.21139,-0.07566,-0.3236,-0.23124,0.21532,-0.03887,0.04674,-0.15845,0.04655],[-0.11014,-0.02901,-0.05191,0.41687,-0.05805,0.07313,-0.1076,0.24488,-0.05092,-0.06998,-0.03039,-0.09542,0.19308,-0.05836,-0.05293,0.06932,0.12512,-0.02055,-0.21661,0.00207,-0.21994,-0.4579,0.24765,-0.48962,0.23636,-0.02119,0.05983,-0.2287,-0.36042,0.04559,-0.29947,-0.19839,0.12751,-0.01887,0.21395,-0.12536,-0.16546,0.15844,0.06077,-0.09246,-0.02084,0.00874,0.07086,0.00659,0.11281,-0.05877,-0.0455,0.03331,-0.27434,-0.19019,0.10687,0.27896,-0.09088,0.24647,-0.15785,0.16223,0.2741,-0.15372,0.01463,0.18086,0.01892,-0.01961,0.00372,-0.16253,-0.00678,-0.09199,0.15829,-0.052,0.20298,0.06534,0.15036,0.1616,-0.1447,0.06636,0.29123,-0.17694,0.20505,-0.09375,0.07109,-0.01828,-0.1444,-0.28024,-0.06109,-0.16126,-0.13832,-0.11045,-0.08964,0.35859,0.14291,-0.10402,0.04504,-0.12347,-0.05957,-0.35845,-0.20181,-0.42293,-0.36025,-0.05169,-0.34679,0.07964,-0.19741,0.16394,-0.00728,-0.17554,0.19866,-0.00926,0.12965,-0.23972,0.00989,0.20264,0.03796,-0.11378,0.05997,0.11443,0.2221,0.07548,0.01889,0.03979,-0.07124,-0.33971,-0.20355,0.28645,-0.06826,0.13095,-0.09033,0.01442,0.16918,-0.14909]],"b":[0.0,0.0,0.0,0.0,0.0,0.0,0.0,0.0,0.0,0.0,0.0,0.0,0.0,0.0,0.0,0.0,0.0,0.0,0.0,0.0,0.0,0.0,0.0,0.0,0.0,0.0,0.0,0.0,0.0,0.0,0.0,0.0,0.0,0.0,0.0,0.0,0.0,0.0,0.0,0.0,0.0,0.0,0.0,0.0,0.0,0.0,0.0,0.0,0.0,0.0,0.0,0.0,0.0,0.0,0.0,0.0,0.0,0.0,0.0,0.0,0.0,0.0,0.0,0.0,0.0,0.0,0.0,0.0,0.0,0.0,0.0,0.0,0.0,0.0,0.0,0.0,0.0,0.0,0.0,0.0,0.0,0.0,0.0,0.0,0.0,0.0,0.0,0.0,0.0,0.0,0.0,0.0,0.0,0.0,0.0,0.0,0.0,0.0,0.0,0.0,0.0,0.0,0.0,0.0,0.0,0.0,0.0,0.0,0.0,0.0,0.0,0.0,0.0,0.0,0.0,0.0,0.0,0.0,0.0,0.0,0.0,0.0,0.0,0.0,0.0,0.0,0.0,0.0]},{"W":[[0.01464,-0.09531,0.11802,0.08388,0.17304,0.14104,-0.13934,0.15989,0.09173,-0.35762,-0.11417,0.10311,0.17884,-0.19326,-0.04066,0.08652,-0.07834,-0.0113,0.10496,0.07162,0.08668,-0.29759,0.01311,0.02093,-0.15459,0.00277,-0.29032,-0.01901,-0.01632,-0.05288,-0.2392,-0.09453,-0.04115,0.08967,-0.13884,-0.05555,-0.10198,0.11217,0.16435,0.2461,-0.0558,0.01962,-0.01046,-0.01111,0.0489,-0.25709,0.00796,-0.05673,-0.00572,0.14669,-0.06267,0.0841,-0.28256,-0.05762,0.16903,-0.09478,0.20193,-0.12297,-0.2528,0.01092,-0.10148,-0.1747,0.12363,0.06272],[0.0452,-0.00525,-0.03129,-0.16783,0.16345,-0.04126,-0.00604,0.05008,-0.18382,0.01911,-0.09021,-0.2328,-0.06148,0.13552,0.00385,-0.0404,-0.17386,-0.23565,-0.07776,-0.00596,-0.07519,-0.13994,0.081,-0.02235,0.29544,-0.16731,-0.24905,-0.191,-0.17809,0.27214,-0.08107,-0.07003,-0.02314,0.02748,-0.09724,0.02172,0.10596,0.02756,-0.11405,0.06983,-0.03888,-0.02274,0.13719,0.11628,0.17102,0.07931,0.16423,-0.12856,-0.15786,0.21971,-0.09868,-0.10421,-0.08243,0.17199,-0.07848,0.05097,0.171,-0.20096,-0.02832,0.10142,0.13861,-0.13275,0.05854,0.03991],[0.12785,0.06344,0.08375,0.0325,0.18235,0.06935,0.07059,0.04076,-0.11896,0.28271,-0.09926,-0.01449,0.13749,-0.22147,-0.01588,0.23321,0.07356,-0.04339,-0.0789,-0.20194,-0.04217,-0.08818,0.14173,0.00575,-0.15502,0.12385,-0.12757,0.06574,0.02718,-0.13686,-0.13395,0.08766,-0.05834,0.02325,0.28097,-0.07468,0.099,0.10574,-0.28372,0.2382,0.18441,-0.0578,-0.04857,0.06387,0.22801,-0.02503,0.37597,-0.03944,0.22269,-0.0797,0.18338,-0.14998,-0.04969,-0.07211,0.02674,-0.12576,-0.07123,-0.15476,0.11895,0.07131,0.23177,-0.1577,0.05928,0.05368],[-0.02376,0.13741,-0.04446,-0.19494,-0.03152,0.06183,0.04571,-0.04879,-0.0188,-0.03484,-0.23678,0.03956,0.15895,0.03757,0.14372,0.06747,-0.22139,-0.03368,0.08635,-0.27277,0.01709,-0.08639,0.00616,-0.21847,0.15709,0.0138,-0.17433,-0.17701,-0.04303,0.03402,0.12998,0.06906,0.0476,0.06825,0.20032,-0.00243,0.08784,0.08021,0.0413,0.29488,-0.06346,0.34994,-0.06291,0.01663,0.0321,-0.06261,0.07293,-0.22557,-0.12837,0.08735,0.11278,0.1984,-0.0781,0.09539,-0.08477,-0.24405,0.03078,0.22756,0.09044,0.1975,-0.16737,0.02189,-0.22574,0.19157],[-0.01182,-0.15882,0.00317,0.0381,-0.11682,-0.19318,-0.28757,-0.21626,0.01796,0.05449,-0.14008,-0.01326,0.18913,-0.05728,-0.05921,0.23786,-0.17438,-0.02659,-0.19511,-0.07336,-0.14178,0.09109,-0.06445,-0.06927,0.07142,-0.04606,-0.04983,0.09708,0.23244,0.04844,0.03597,0.02063,-0.05196,-0.01784,-0.08845,0.23339,-0.07023,0.08778,-0.01486,0.12323,0.41568,-0.23116,0.05182,0.09248,0.16239,0.06317,0.04519,0.05782,0.0414,0.06223,-0.04477,-0.13699,0.12024,0.19115,0.01399,0.05859,-0.14716,-0.01227,-0.08563,0.04064,0.08664,-0.29722,-0.02656,0.00443],[-0.13653,0.13066,0.16783,-0.05735,-0.04616,0.08506,-0.09657,0.05221,-0.00897,0.09584,-0.02267,0.00371,-0.16001,-0.15775,0.268,-0.03079,-0.08084,-0.15287,0.02384,-0.28485,-0.10092,-0.10496,-0.20884,-0.08623,0.09823,-0.10261,-0.17197,-0.02421,0.21586,-0.10676,0.03952,0.03731,0.05657,0.06676,-0.00558,0.02338,-0.25774,0.21331,0.21642,0.06204,-0.03051,0.06312,0.09565,0.2508,-0.07294,0.1795,-0.08862,-0.05305,0.12202,0.04802,0.03209,0.22421,-0.08661,0.03259,0.00417,-0.01046,-0.0227,0.04447,-0.22961,-0.1132,0.22632,0.00236,0.08249,0.06302],[-0.16928,0.12611,-0.15126,-0.28032,-0.43412,-0.15283,-0.05392,0.05741,0.15632,0.07543,0.04773,0.15263,-0.08597,-0.00924,-0.09937,0.02307,0.03515,-0.16723,-0.23767,-0.00045,-0.10578,0.08692,0.13019,0.30527,0.01575,0.05007,0.02666,-0.09729,-0.04292,0.10486,-0.0135,-0.01311,0.2492,0.07097,0.04908,-0.28654,-0.11999,0.06406,-0.11222,-0.00297,-0.19953,0.04796,-0.0011,0.10952,0.15735,-0.14295,0.2251,-0.17711,0.3588,0.21041,-0.01503,0.14792,-0.10197,0.04961,0.00255,0.09835,0.06055,-0.1392,-0.00673,-0.09312,-0.04337,0.01024,-0.07396,0.1474],[-0.26325,0.2269,0.18058,-0.10935,-0.02443,-0.09476,-0.13563,0.03702,-0.09324,0.05648,0.11168,0.04177,-0.2206,-0.2173,0.02419,-0.25728,-0.09848,-0.09166,0.03994,-0.05341,0.07287,-0.05306,0.04117,-0.11354,-0.05848,0.0162,-0.11509,-0.14536,-0.01008,0.04721,-0.18717,-0.23219,-0.16725,0.12323,0.18467,-0.07298,0.05124,0.10831,-0.04247,-0.03869,0.11813,0.06471,0.11415,-0.13992,0.01974,-0.00778,0.02852,-0.07913,0.06774,-0.05178,0.06183,0.01221,0.24483,0.01732,0.0111,0.16583,0.02206,0.0605,0.02891,0.18565,0.04357,-0.117,-0.03419,-0.17252],[0.08614,-0.01557,-0.17806,0.10194,-0.00962,0.07323,0.11244,0.01129,-0.17341,-0.05429,-0.0391,0.14249,0.07543,0.17524,-0.12508,0.11713,0.11771,0.03916,0.16392,0.01198,-0.05638,-0.03911,0.09482,0.1397,-0.20226,0.01606,-0.03595,-0.00197,0.15773,0.19778,-0.0225,0.00178,0.05425,-0.02506,-0.06861,0.09547,0.02496,0.01356,-0.01487,-0.34602,0.07814,0.01918,0.03207,-0.17418,0.11448,-0.009,-0.15666,-0.00571,-0.05339,0.01635,0.11445,-0.05021,-0.30736,0.06071,0.04682,-0.33332,0.05972,0.01349,-0.15223,-0.10615,0.07095,0.11777,-0.03288,0.02562],[0.04208,0.07315,0.2641,-0.10479,0.10964,0.19579,0.03036,-0.0921,-0.09855,0.03056,-0.10636,-0.01137,0.22288,-0.0904,0.10314,0.01202,0.07199,-0.0722,0.03866,-0.04244,0.04902,0.06174,-0.04854,0.09925,0.14146,0.02614,0.10374,0.01543,-0.04997,-0.22556,0.12471,-0.17538,0.08426,0.01509,0.03156,-0.16294,-0.02925,0.26046,0.02636,-0.17884,0.06262,0.07946,-0.05162,-0.26863,0.19515,0.11185,0.0043,-0.0151,0.049,0.17371,0.06145,-0.04262,0.12992,-0.08746,0.00442,0.06295,0.00642,0.06167,0.03421,-0.09634,-0.0245,-0.00537,0.01091,-0.02716],[-0.04463,0.02973,-0.03016,0.07538,0.12253,-0.12268,0.00279,0.01461,0.04574,-0.17429,-0.01897,-0.10887,0.02281,-0.05989,0.06607,-0.05136,0.187,0.02153,-0.14047,0.06437,0.01472,-0.0757,0.16355,0.02509,-0.12973,0.04047,-0.02428,-0.15896,0.09105,0.11614,-0.16477,0.32621,-0.04973,0.03062,-0.18023,0.07132,0.15206,-0.00567,0.08792,-0.25995,0.09517,0.08399,0.17885,0.00158,0.15336,-0.16501,-0.09683,-0.13187,0.11149,-0.14842,-0.22531,0.06102,-0.05252,0.3228,0.1038,-0.13816,-0.08267,0.06777,-0.01737,-0.01831,0.14352,0.03418,0.0704,-0.01807],[-0.05663,0.16356,0.22497,0.15808,-0.08901,0.17417,-0.12891,-0.05009,0.10325,-0.15242,-0.06185,-0.10362,-0.15182,0.11324,0.05242,-0.05997,-0.06623,0.20408,-0.27196,-0.05679,0.14928,0.096,-0.09937,-0.03207,-0.17373,0.07542,0.01814,-0.07564,-0.0247,-0.13596,0.1265,0.04497,0.19344,-0.05308,-0.03796,-0.1219,-0.1449,-0.04302,-0.04845,-0.01369,0.05055,-0.03382,0.18466,-0.04451,0.15313,0.00241,-0.05783,-0.01117,0.02329,0.04509,-0.20139,-0.0608,0.08159,-0.14545,-0.1298,0.13965,-0.00933,0.01804,0.08951,0.00105,0.26584,-0.05332,-0.09123,-0.25759],[-0.14536,-0.05722,-0.15497,-0.05985,-0.13143,0.0485,0.20224,-0.18243,0.17388,-0.18722,0.05897,-0.01971,0.11769,-0.02636,0.09794,-0.0664,0.04666,-0.09016,0.07202,-0.12275,0.07257,0.11687,-0.13107,-0.01145,-0.14236,0.04721,-0.09532,-0.01784,0.10937,-0.11478,0.15678,-0.21805,-0.19178,0.11398,-0.20353,-0.13053,0.03371,0.07392,0.07442,0.08527,-0.02826,-0.05283,0.00409,0.02064,0.06966,-0.11304,0.05567,0.20399,0.10514,0.04034,0.0431,0.02131,-0.06175,-0.15428,0.00233,0.00243,0.02927,0.25069,0.01236,0.16569,0.16868,0.15757,0.04089,-0.203],[-0.10294,-0.10049,0.14284,0.23247,-0.24471,0.00071,0.15272,-0.05241,0.16541,0.02017,-0.18644,0.03648,0.23117,0.17574,0.08163,-0.13403,0.01269,0.02373,0.05167,0.0816,0.06934,0.14375,0.11713,0.08722,0.1525,0.02542,0.23208,-0.04263,-0.01236,0.06048,0.08182,0.04672,-0.17266,0.12239,-0.10617,-0.06417,0.06014,-0.19615,-0.07136,-0.0812,-0.01843,-0.20652,0.09181,-0.10478,0.01919,0.11047,0.21657,-0.30314,0.03174,0.10559,0.04798,0.09169,0.05166,0.17494,-0.06756,0.03172,-0.0381,-0.15375,-0.0014,-0.14675,0.07837,0.21076,0.19313,-0.00041],[-0.19474,0.22873,0.04092,0.11683,-0.04361,0.1486,0.16733,-0.00342,-0.43673,0.22332,-0.18299,0.05552,-0.14571,-0.12733,-0.02442,0.1748,-0.05179,-0.17428,-0.13816,0.02399,-0.10937,0.09989,-0.11259,0.20925,-0.05148,0.08473,-0.04995,0.04539,0.1019,0.12435,0.15679,0.05419,-0.10336,0.02829,0.17829,0.04771,0.01791,-0.10025,-0.02816,-0.1552,-0.02886,-0.20295,-0.01316,0.1084,-0.22469,-0.01069,-0.0874,0.11182,0.1742,0.00743,-0.04483,0.08295,0.05771,0.06833,0.05899,0.01535,-0.05017,0.08431,-0.10022,-0.0636,0.13944,0.19425,0.07084,-0.17541],[-0.10843,0.12858,0.07461,0.03721,0.04166,-0.09533,0.0745,0.02317,-0.02321,0.13639,0.01491,-0.23704,-0.07236,-0.1778,-0.09428,0.21887,-0.0789,-0.06272,-0.12145,0.06414,0.09111,-0.0473,0.04534,0.1784,0.0724,-0.12967,-0.00469,0.08836,-0.07625,-0.24955,0.2118,0.16272,0.05319,0.43818,-0.00057,0.04838,0.11876,-0.28187,0.08019,-0.20629,-0.05319,-0.04319,-0.20754,0.03865,0.0096,-0.28061,-0.12751,0.00308,0.02905,-0.21835,0.04461,0.11486,0.08238,0.08797,-0.00317,-0.09654,0.06065,1e-05,0.0402,0.00214,0.13298,0.25962,-0.11743,0.02587],[-0.16726,-0.26006,0.14302,0.07008,-0.01325,-0.29058,0.00929,0.04327,-0.03869,-0.10086,-0.11296,-0.15334,0.32037,0.11233,-0.01185,-0.06537,-0.14498,-0.1619,0.11249,-0.02697,-0.04378,-0.04191,0.04962,0.11052,0.04575,-0.11623,-0.03116,0.08249,-0.05886,-0.12133,-0.16553,0.099,-0.10971,-0.05983,0.12032,-0.04716,0.161,-0.03912,0.01419,-0.1404,0.00892,-0.11798,-0.13906,-0.11235,-0.0821,-0.12351,-0.11068,0.14949,0.04725,0.04753,-0.25388,-0.19025,-0.02355,-0.14777,0.06384,0.02869,-0.01338,0.04987,-0.15082,0.05832,0.08915,0.07463,0.15203,-0.12433],[-0.15781,0.15811,-0.22634,-0.20569,0.09034,-0.05733,-0.11508,-0.31385,-0.10886,-0.17544,0.07646,0.07568,0.18082,0.12543,0.0085,0.05032,-0.09405,0.00621,-0.14099,-0.05435,0.11636,-0.01985,-0.18307,0.03265,-0.15516,0.0725,-0.14677,-0.14544,0.10034,-0.25431,-0.10354,0.24555,-0.08518,0.04354,0.18685,0.18949,-0.20797,-0.31168,0.10831,0.12174,-0.05567,0.18806,0.04343,0.21884,-0.11419,-0.06072,0.07119,0.01869,-0.0612,-0.14463,-0.10586,-0.33197,-0.11589,-0.05522,-0.15333,-0.05817,0.12137,0.03314,0.19325,-0.00726,0.01976,0.11264,0.05397,-0.07624],[0.10789,0.04318,-0.10039,-0.03184,-0.11632,0.03374,-0.1339,-0.11924,-0.08544,0.06471,-0.04409,-0.06228,-0.03944,0.16614,-0.12631,0.25422,0.17477,0.06774,0.16006,-0.05575,0.01412,-0.0735,-0.22904,-0.00589,0.07519,-0.08341,-0.05579,-0.07409,-0.05498,0.01653,-0.18478,0.02428,0.05128,0.06511,0.00702,0.10215,-0.02231,-0.31628,0.06341,0.04832,-0.08414,0.1522,-0.07062,0.17526,-0.21735,-0.08921,0.10187,-0.09881,-0.08192,-0.24569,-0.23518,-0.04009,-0.06613,-0.09175,0.09091,-0.06901,-0.10817,-0.17542,-0.11462,-0.04182,0.15983,-0.14149,0.03294,0.08211],[-0.13235,-0.13393,0.01415,-0.01207,-0.06739,-0.11692,0.11767,-0.06536,0.18525,-0.02617,0.07684,-0.01806,-0.12017,0.09612,0.0599,-0.0464,-0.18007,-0.00213,0.06939,-0.22966,-0.01534,0.09938,0.03823,-0.02398,-0.08886,-0.05263,0.27846,-0.16318,0.18962,0.01837,0.02385,-0.2221,-0.06423,-0.16941,-0.04169,0.02952,0.00183,0.05394,0.00745,-0.02091,-0.02184,-0.04631,0.06045,-0.04685,0.03717,0.0748,-0.07105,-0.08997,0.15751,-0.04257,0.05311,0.1309,-0.19042,0.0027,-0.00097,-0.0442,-0.10469,-0.01227,0.01428,0.12927,-0.03562,0.07021,-0.11642,0.13744],[0.09704,-0.29167,0.02275,-0.0143,-0.1473,-0.01934,0.02761,-0.15954,0.02447,-0.10731,0.14525,-0.10337,-0.11764,0.03387,-0.15469,-0.07324,0.13618,0.01481,-0.10868,-0.03584,-0.12229,0.0293,-0.2107,-0.13092,0.05146,-0.15376,0.10611,-0.25029,-0.21039,0.09609,-0.1215,-0.06587,0.35121,-0.19359,-0.00536,-0.08107,0.16242,0.26547,0.1474,0.03345,0.05801,-0.0433,0.2011,0.03322,-0.1072,0.24804,0.24163,-0.14544,-0.04625,-0.17801,-0.1058,-0.12406,0.03513,-0.04345,0.12628,-0.00942,0.08116,-0.04798,0.10722,-0.23373,-0.0162,-0.11848,-0.08606,0.02693],[0.05082,-0.08853,0.03915,-0.14279,0.06031,0.01102,0.03563,0.00409,0.03184,0.00876,-0.10971,-0.22136,0.13067,-0.14177,-0.00259,0.00601,-0.17597,-0.08778,0.06342,-0.08047,0.09241,0.01381,0.0541,0.01216,0.1698,0.10172,-0.02387,0.05513,0.05201,-0.02005,-0.17449,0.0196,0.27299,-0.03996,-0.01026,0.07188,0.03382,-0.04585,-0.29521,0.10007,0.07343,-0.09108,-0.13184,-0.09677,0.09549,-0.05998,0.09801,-0.28217,0.11994,-0.01854,-0.03677,-0.19183,0.12481,0.10772,-0.15753,0.02353,0.0902,-0.05791,0.21558,0.23697,0.02344,0.16631,0.10934,0.04356],[-0.03154,-0.37024,0.12311,0.01123,0.05496,0.03259,-0.1164,0.00455,-0.30926,0.18512,-0.10148,-0.31509,-0.03477,0.05828,0.15157,0.16738,-0.00367,0.08528,0.13032,0.07965,0.15263,0.00663,0.29942,0.00466,0.04454,0.02293,-0.14715,-0.19794,-0.18681,0.05882,0.09087,-0.0858,0.0856,-0.08293,-0.1716,0.09096,-0.07108,0.24039,0.13505,0.06435,0.10012,0.02032,0.01903,-0.17327,0.25453,-0.2361,0.25202,0.12306,0.09341,-0.11449,-0.02063,-0.12182,-0.16465,0.11788,-0.01129,-0.24738,0.00437,-0.01774,0.15489,-0.08795,0.11325,0.02096,-0.0845,0.04921],[0.1548,-0.01376,0.08376,0.08483,-0.17421,0.0688,-0.10353,-0.20732,-0.01856,0.04096,0.03907,-0.02801,0.07695,0.10232,0.14602,-0.09611,0.02648,0.29769,0.11726,0.20243,-0.35138,-0.054,-0.08419,0.16184,-0.40614,0.02325,0.00345,0.07709,0.3294,-0.05323,-0.06541,0.05057,0.13571,-0.08401,0.02052,-0.00626,-0.09364,-0.01471,0.19345,0.03711,-0.06392,-0.00762,0.19913,0.02037,-0.02942,0.00066,0.21179,0.07182,0.22984,-0.02603,-0.10672,-0.01012,0.00851,-0.01247,0.01096,0.1184,-0.24228,0.01276,0.16333,0.17651,-0.0003,-0.03703,-0.06169,0.23047],[0.19276,-0.01138,-0.02198,0.11657,0.12796,-0.11508,0.01359,0.01881,0.03812,-0.14067,-0.02186,0.12314,0.1836,0.04184,0.18193,0.21671,-0.09854,0.19836,0.08568,-0.06719,-0.05309,-0.03088,0.08557,0.18098,0.08792,0.25513,0.07208,-0.26918,0.29435,-0.13296,0.15345,-0.00276,0.23185,-0.02388,-0.04422,0.12785,-0.01046,-0.09879,-0.13336,0.01514,0.06201,0.00131,-0.02936,-0.01042,0.14319,0.15973,-0.02179,0.07652,-0.06061,-0.39466,-0.06765,-0.02527,0.08836,-0.19864,-0.16398,0.08128,0.00189,0.06661,0.14919,0.16997,0.08334,-0.07967,-0.0572,0.09715],[0.25115,-0.02698,0.15973,-0.06603,-0.00854,-0.11979,-0.03993,-0.08397,0.17362,0.02182,-0.145,-0.04778,0.02264,0.02554,-0.06755,-0.01146,0.10033,0.22425,-0.07816,-0.01528,-0.11177,0.06187,-0.01657,-0.04133,0.00815,-0.06614,0.04986,-0.13398,0.15497,0.0116,-0.09534,-0.08607,0.02341,-0.09888,0.06351,0.13929,0.11205,0.20196,0.0795,0.12246,-0.02383,-0.02076,0.03225,0.04987,-0.06311,-0.09466,0.39002,0.11938,0.06892,0.17216,0.20636,0.0836,0.07476,0.10367,0.25932,0.18571,0.19288,0.1133,-0.09752,-0.08061,-0.08896,0.03176,-0.18127,0.15439],[0.08597,-0.08092,0.08974,0.1186,0.06569,0.05162,-0.12302,0.27752,-0.2053,-0.21254,0.10322,-0.04686,0.05757,0.14237,-0.24394,-0.02015,0.1451,0.26101,0.08247,0.12173,0.18968,0.08009,0.12843,-0.20737,0.08257,0.02684,-0.13855,0.05475,0.11765,-0.0633,-0.06817,0.12128,0.14644,-0.05632,0.05864,0.17838,0.01773,-0.0601,0.31933,0.0106,0.07801,-0.10297,0.10987,-0.06781,-0.05913,0.12275,-0.03489,0.0683,-0.10775,0.0518,0.02626,0.17185,0.00979,0.1762,-0.02253,0.07119,0.1397,-0.03566,0.08123,-0.03141,-0.06988,0.21695,-0.00382,0.04608],[-0.03249,0.12909,0.15926,-0.10049,-0.07772,-0.04361,0.00319,0.1033,0.00739,0.11379,0.0799,-0.01031,-0.00887,-0.01411,-0.06768,0.15828,0.00381,-0.00642,0.0405,0.12199,-0.15801,0.0545,0.0121,0.12029,0.10034,-0.04492,0.03502,0.0223,0.09863,-0.07948,0.09724,-0.07963,0.09792,-0.16719,0.09646,-0.07509,0.06093,-0.09309,0.00021,-0.02585,-0.2179,0.02615,0.14135,0.06919,-0.07366,-0.1814,0.21986,-0.0663,-0.07111,0.14028,0.02324,-0.04464,-0.26888,0.2075,-0.08279,-0.21983,0.14744,-0.1169,0.09774,-0.14684,-0.19764,-0.2146,0.05184,-0.10387],[0.10949,0.17804,-0.11151,0.04905,0.02014,-0.00541,0.17959,0.07167,-0.08875,-0.00641,-0.01732,-0.06343,0.20563,-0.12621,-0.17914,-0.09771,-0.06269,-0.00542,0.14252,0.10306,-0.07493,0.1029,-0.18062,-0.07159,0.2067,0.21855,0.19494,0.04742,-0.04435,-0.11695,0.02471,0.04369,0.17827,-0.0426,-0.06142,0.13316,0.18547,-0.14402,0.13753,0.22781,-0.19786,-0.032,0.1128,-0.00259,-0.01286,0.07112,0.09304,0.11743,0.0817,0.0718,-0.04688,0.0675,0.10139,0.06269,0.1171,0.19945,0.02854,0.09353,-0.04283,0.15798,0.05237,-0.20011,0.00379,0.17385],[-0.047,0.12328,-0.05916,-0.17238,-0.07736,-0.0165,0.11838,0.0435,-0.09945,0.30449,-0.12092,-0.23076,-0.13022,0.08784,-0.06413,0.191,-0.01194,-0.08139,-0.05829,-0.13989,0.19358,0.09514,0.05358,0.33249,-0.08286,0.25792,-0.06011,0.03213,0.00935,0.03118,0.20732,-0.18455,0.05038,-0.03351,0.06155,0.19578,0.17344,0.06745,-0.04582,0.02194,0.0092,-0.08728,0.08137,-0.17816,-0.13781,-0.04546,0.07679,0.03136,0.1399,0.08848,0.16296,-0.07961,-0.09279,0.08407,0.01826,0.07941,0.0592,0.00075,0.14292,-0.09307,0.02912,-0.21029,-0.22335,-0.13262],[0.1991,-0.14287,-0.04228,0.10866,0.18243,0.18148,0.1512,-0.21317,-0.17345,0.02597,-0.08392,-0.11217,-0.00061,0.22115,0.0813,-0.1549,0.08991,0.07206,-0.09453,0.14292,0.07317,0.09646,0.06853,-0.07437,-0.03811,-0.21595,0.02038,-0.07304,0.13873,0.09942,0.15236,-0.00963,0.03919,-0.26125,-0.00285,-0.0364,0.01203,-0.01131,-0.01014,-0.13805,-0.10791,0.0244,0.02154,-0.19897,-0.08226,-0.13251,-0.16071,-0.05168,-0.00557,-0.03119,0.0314,-0.09625,-0.07384,-0.01264,0.04363,0.05998,-0.35391,0.11975,0.06363,0.04,0.06224,0.08551,0.06317,0.09718],[0.00567,-0.08428,0.07728,0.00731,-0.01769,0.05116,0.06775,0.09839,0.01112,-0.03085,-0.17676,0.03022,-0.0703,0.08352,0.1059,-0.01307,-0.04183,0.07202,0.06126,0.14955,0.11583,0.19058,0.08418,-0.14972,-0.16406,-0.0742,0.13247,-0.09459,0.38403,0.03031,-0.24531,-0.25936,0.14998,0.04635,0.29764,-0.05101,-0.21521,0.04411,0.01797,-0.03133,0.12628,0.07131,0.03063,0.02131,0.16633,-0.03345,0.16553,0.10492,0.18213,0.14669,0.17008,0.09768,0.12125,-0.14071,0.14353,0.20724,-0.0014,-0.13978,-0.05341,0.14747,-0.10022,-0.13502,0.00406,-0.11098],[-0.07023,0.17017,0.03799,0.02584,-0.28243,-0.12284,0.02513,-0.11248,-0.18669,0.00454,0.00922,0.02715,0.04784,0.13018,0.05029,-0.01449,-0.11658,0.02559,-0.18388,0.13874,0.1417,-0.18077,-0.08656,0.12777,-0.07317,-0.21257,-0.18368,0.10974,-0.00969,-0.18814,-0.03704,-0.19336,-0.12041,-0.13189,0.07153,-0.00256,-0.16251,-0.08366,-0.20119,0.07936,-0.15702,0.05342,-0.17454,0.12175,-0.28373,0.02469,0.07285,-0.07272,-0.06247,-0.05583,0.01705,0.123,0.26314,0.00273,-0.18088,0.03499,-0.10456,0.11163,-0.05112,0.04442,0.01901,-0.19462,0.05878,0.0192],[0.01631,-0.09493,0.03236,-0.0414,0.07806,0.04258,-0.05587,-0.02657,0.07244,-0.14541,-0.00862,0.1899,0.18624,-0.03631,0.11769,0.09957,-0.108,0.00852,-0.11215,0.09886,0.06625,0.26757,-0.08115,0.02761,0.13002,-0.07086,-0.09096,-0.05733,-0.12974,0.17453,-0.07121,0.00402,0.00936,-0.02144,-0.04922,-0.02785,-0.16927,0.19263,-0.08545,-0.05522,0.02522,0.08696,0.19289,0.12511,0.03121,-0.10827,-0.24573,-0.17188,-0.07318,-0.02343,0.0653,0.00051,-0.00252,0.04529,-0.02621,-0.03028,0.06965,0.07663,0.09773,-0.26815,-0.00507,0.16372,-0.06141,0.00366],[0.04043,-0.00189,0.079,0.09302,0.09601,0.41917,0.0672,-0.24505,-0.16403,0.22876,-0.22226,-0.13804,0.05617,0.15737,0.1231,-0.03964,0.01479,0.04148,0.17663,0.11301,-0.24436,-0.06919,-0.08412,-0.02472,-0.27546,-0.13715,-0.21162,0.03725,-0.23118,0.17028,0.21817,-0.25295,-0.10311,0.0824,-0.07689,-0.01195,0.07137,-0.10115,-0.05928,0.06176,0.15037,-0.02069,-0.10262,-0.03416,-0.08038,0.16628,0.24521,-0.03588,0.08565,-0.04929,0.06806,5e-05,0.01211,0.41234,-0.13875,0.0234,0.10401,-0.05732,-0.16354,-0.27558,-0.10765,-0.01854,0.02131,-0.0106],[-0.06387,-0.14673,-0.09735,-0.14659,-0.04704,0.16666,0.00425,-0.26192,0.02469,-0.02575,0.08895,-0.11882,0.12773,0.05054,0.23772,-0.16305,0.08695,-0.12164,-0.32519,-0.27421,-0.0408,0.18161,0.17386,0.05181,0.06477,-0.04204,-0.03768,0.00206,0.06497,-0.16853,-0.09855,0.19792,-0.05099,-0.20641,0.29061,0.06466,0.06632,-0.22078,0.02065,0.27735,0.1658,-0.01436,0.30362,0.09582,-0.18169,0.08706,-0.00472,0.06848,-0.0078,0.02694,0.07343,-0.08076,-0.15972,0.09296,-0.12406,0.05826,0.09291,0.08064,0.20985,0.18288,0.10922,-0.11961,-0.19317,-0.13478],[0.03879,-0.00842,-0.04514,-0.04779,0.00454,0.0502,0.32417,-0.17227,0.05452,0.00287,-0.04337,0.13501,-0.12745,0.01504,0.07896,0.01566,0.07131,0.19381,0.10839,0.03643,0.09839,-0.04571,0.1676,-0.14793,0.10536,-0.01008,0.18482,-0.06812,0.01989,-0.13342,-0.06122,0.0918,0.03747,-0.09461,-0.06269,-0.00169,-0.15055,-0.07096,-0.15216,-0.03134,0.03883,0.01828,-0.0221,-0.06654,-0.06895,-0.05936,-0.01013,0.06953,-0.09283,0.01767,-0.07973,-0.15092,0.0292,-0.07488,0.18013,-0.00916,0.03529,0.0961,-0.04055,-0.05959,-0.10453,0.04826,-0.14673,0.30461],[0.09958,-0.1393,0.0441,0.19916,-0.07326,-0.08262,0.07764,0.0869,0.02058,-0.00662,-0.31609,-0.05058,0.16059,-0.04198,-0.32669,0.08041,-0.14649,0.18104,-0.06175,0.02787,0.01857,0.06823,0.11088,-0.00661,-0.07125,0.13752,-0.08253,-0.05917,-0.12457,-0.02584,-0.13541,-0.08103,0.14478,-0.05381,0.01708,0.08758,0.04261,0.13865,-0.02968,0.17601,-0.19204,0.16769,-0.10474,-0.18743,0.10868,-0.09519,-0.12404,-0.38975,-0.04868,-0.02879,0.03408,0.10919,0.07829,0.0515,-0.02312,0.04231,-0.01721,-0.11543,0.02831,0.00559,0.0019,-0.09311,-0.03272,0.01776],[-0.011,0.13279,-0.14108,0.03348,-0.13992,0.07128,0.16497,-0.15575,0.37195,0.07509,-0.18458,0.20318,0.09999,-0.05882,0.12758,-0.01723,0.07357,-0.19434,-0.06923,-0.08811,-0.17236,0.0149,-0.15468,-0.17866,-0.06382,0.10883,-0.01884,-0.07994,-0.08499,0.08029,0.08359,-0.00336,-0.00679,-0.09469,0.10242,-0.33262,-0.084,-0.10713,0.16651,0.0055,-0.14099,-0.05474,0.06414,-0.14852,-0.15876,0.36472,0.06242,-0.02697,-0.15517,0.12772,-0.21295,0.05029,0.06935,-0.29393,-0.23654,0.22451,-0.06864,0.10055,0.12282,-0.09371,0.14823,-0.009,0.00841,-0.17491],[-0.05106,-0.00358,0.1454,-0.02764,-0.0194,-0.05152,0.23389,-0.17501,-0.12625,0.16549,0.02601,0.03688,0.13974,0.04619,-0.14698,-0.09768,-0.14905,-0.15278,0.12055,-0.00516,-0.14981,-0.09551,0.2097,-0.10832,-0.18922,0.00824,0.09364,-0.08559,0.03414,-0.22999,-0.01666,0.2151,-0.02213,0.03676,0.03641,-0.11531,0.04934,-0.23385,0.19369,-0.04351,-0.0386,0.02273,-0.20532,0.20744,-0.21681,0.06434,-0.03866,-0.06393,-0.09022,0.10898,-0.17898,-0.08024,0.15306,0.07525,0.14776,-0.14704,-0.07745,0.21642,0.25518,0.01819,0.005,0.03546,-0.11414,0.07563],[-0.14561,0.20236,-0.02496,0.10324,0.15279,0.09758,0.08286,0.12768,0.17016,0.0598,-0.04895,0.10347,-0.04945,-0.02517,0.24214,-0.09135,-0.06543,-0.09284,-0.14282,0.15729,-0.06631,0.13175,-0.17325,-0.0431,0.10268,-0.06678,-0.00294,0.15026,-0.01427,-0.07763,-0.21897,-0.18645,-0.03879,0.05029,0.05681,0.11204,-0.03451,-0.13804,-0.04852,0.12748,0.03955,0.09883,-0.08223,0.1479,-0.18264,0.04775,-0.05248,0.11851,-0.08169,0.09621,-0.04441,0.00643,-0.11127,-0.21948,0.09643,0.04184,-0.19019,0.12124,-0.01374,0.0696,-0.19102,-0.15549,0.08545,-0.08817],[0.03769,-0.09838,0.10866,0.11282,-0.14988,-0.09923,0.00615,-0.08949,-0.06069,-0.08496,0.09539,0.1996,-0.10939,-0.07734,0.03856,-0.09879,0.21068,0.10632,-0.19097,0.1373,0.21664,-0.12343,0.20432,0.15271,-0.03952,-0.02914,0.13202,-0.01814,-0.05951,0.12025,-0.00098,0.16208,-0.30028,0.04233,-0.16267,-0.10222,-0.15418,-0.082,0.18804,-0.00429,-0.07672,-0.04374,0.14224,-0.21989,0.0536,0.057,0.03205,-0.00828,0.15202,0.16051,0.04475,0.1755,-0.12258,0.06855,0.17688,-0.12105,-0.25628,-0.00135,-0.10842,0.04691,0.05292,-0.15169,0.03145,-0.13089],[-0.03813,-0.02844,-0.16955,0.2015,0.18265,0.00491,-0.06289,-0.19386,-0.02034,-0.09465,-0.00165,-0.18272,0.00543,-0.17023,0.07926,-0.0156,0.04181,0.03275,0.23283,0.01007,-0.0352,0.07298,-0.08659,0.2599,-0.04893,-0.15015,-0.12019,0.02844,-0.19095,-0.01774,-0.05403,0.23967,-0.02326,-0.03153,0.08267,0.03664,-0.18107,-0.14485,0.21401,-0.01344,-0.17026,0.00432,-0.20767,0.13614,0.12907,-0.04946,0.07187,-0.07066,-0.04916,0.17474,0.11055,-0.08988,-0.04093,-0.18009,-0.0954,-0.13663,0.12626,0.0944,-0.03935,-0.21455,-0.15788,0.12966,0.00856,-0.0985],[0.12348,-0.08281,0.05429,-0.07125,-0.07535,0.05009,-0.01934,0.09473,-0.07518,0.05592,0.14159,-0.06113,0.11756,0.03903,-0.08674,-0.29223,-0.2604,0.17583,-0.06425,0.10959,-0.01881,-0.12267,0.09129,-0.01423,0.09884,-0.05344,0.21269,-0.06926,-0.06013,0.199,0.07742,0.03239,-0.10791,0.00895,0.09663,-0.04839,0.12899,0.01126,0.03214,-0.24781,-0.24979,-0.2305,-0.13485,-0.03335,-0.05431,-0.03774,-0.11966,-0.0698,-0.31164,-0.11734,0.01399,0.0673,-0.13863,0.04943,-0.01029,0.04885,0.08327,-0.12811,-0.05006,-0.08452,-0.0349,-0.11591,-0.05534,-0.09666],[-0.01945,-0.20994,0.0368,-0.01123,-0.19065,0.26664,0.1536,-0.12855,0.17908,0.16878,-0.18101,0.15641,0.12493,-0.20595,-0.06059,0.14989,0.00701,0.00969,-0.07524,-0.01216,-0.02442,0.16847,0.00761,0.10146,0.01514,0.05827,-0.10557,-0.21796,0.077,0.16921,-0.04792,0.20201,-0.05849,-0.21285,0.00525,0.21519,0.11336,0.11881,-0.07098,0.00164,0.19667,-0.00599,-0.16542,-0.09456,0.03786,-0.33396,-0.05735,-0.17,0.09191,-0.01125,-0.12687,0.10217,-0.00873,-0.03851,-0.15283,0.1748,0.05146,-0.09329,-0.08318,0.03327,0.06316,-0.02849,-0.04769,-0.25062],[0.02292,-0.14256,0.33792,-0.02482,-0.21075,0.11301,0.00392,0.19317,-0.02319,-0.00018,-0.08005,0.07277,0.2004,-0.15829,-0.00602,-0.01523,0.03898,-0.00019,-0.00917,0.07125,0.14596,-0.10785,-0.00302,0.12477,0.01473,-0.14242,-0.19105,-0.01083,0.17888,-0.05767,-0.01941,-0.02566,0.17255,0.13189,-0.098,-0.10894,0.03995,0.03164,-0.1956,0.10346,-0.19873,-0.05442,-0.04114,-0.06292,0.07102,-0.09112,0.12811,-0.02428,0.06537,0.01836,-0.03564,-0.0013,0.17044,0.02614,0.04429,0.07871,-0.19657,0.06389,0.00722,-0.46329,0.02191,-0.13336,-0.01211,-0.10794],[0.09385,0.20368,0.04051,-0.15532,-0.05237,0.20733,0.38656,0.00726,-0.13611,0.09301,0.0355,0.13651,-0.09811,0.02863,0.19171,0.2506,-0.21321,-0.11287,0.04175,0.07409,0.15032,-0.07594,-0.05965,-0.1783,-0.18978,0.11566,0.02956,0.00404,0.07325,0.01858,0.09605,0.13012,0.2918,-0.08268,0.10908,0.05392,0.09108,-0.01349,0.06445,-0.28192,-0.12772,-0.01485,0.13233,-0.01882,0.01631,0.0615,0.16329,0.32002,0.21147,-0.12863,-0.22221,0.09486,-0.08546,0.27557,-0.00352,0.0317,0.03717,0.09744,0.17164,0.04592,-0.00258,-0.06436,0.13928,-0.19282],[0.06488,-0.11196,-0.03502,-0.13064,-0.00584,-0.08594,-0.16574,-0.07568,0.08125,-0.11065,-0.09658,-0.22887,-0.17654,-0.04531,-0.17302,-0.02466,0.10624,0.01787,0.09398,0.06006,-0.10586,-0.05126,0.04154,0.00087,-0.02297,0.17276,0.08417,-0.03909,-0.05055,-0.17066,-0.03289,0.0125,-0.05585,-0.00079,0.07101,0.00169,0.1526,0.19376,0.08444,-0.0959,0.04401,-0.09176,-0.02903,-0.01001,-0.13699,-0.07944,0.07319,-0.16582,-0.19167,-0.0883,0.00528,0.07648,0.17301,-0.11108,0.21325,0.04728,0.15275,0.11906,-0.11104,0.07715,0.07626,-0.26394,-0.16278,-0.03248],[0.08638,-0.08832,0.25631,-0.02064,0.02575,-0.0817,-0.14388,-0.00062,-0.01097,-0.0505,-0.15123,0.01875,0.16945,0.03032,0.10377,-0.2962,-0.13191,0.11283,-0.16487,-0.07803,-0.18999,-0.11651,-0.09469,0.00979,-0.15081,0.31426,-0.15507,0.08828,-0.0333,-0.01842,0.00928,0.04134,-0.02766,-0.07678,-0.04174,-0.08753,0.11316,-0.28636,-0.00808,0.09557,-0.06727,0.19551,-0.19979,0.26553,-0.11221,-0.07033,0.08601,0.15371,0.203,-0.22514,0.03789,-0.04045,0.13492,0.02383,0.00281,0.23606,-0.00444,0.05388,-0.01351,0.22411,0.16847,-0.29251,0.01826,0.06702],[0.23586,0.15202,0.07031,0.09005,0.04286,-0.06912,-0.04738,0.07151,0.20783,0.11204,-0.03025,0.07039,0.18374,0.08312,0.12686,-0.04901,-0.07005,-0.03064,-0.1448,-0.17615,0.00878,0.07557,-0.05172,0.09443,0.01518,-0.02959,0.12057,0.12995,0.02231,0.01025,-0.24993,-0.08499,-0.14307,-0.11579,-0.1049,-0.09311,0.16999,-0.16222,0.05412,-0.04509,-0.03873,-0.19799,-0.04856,-0.12531,-0.01947,0.02393,0.26437,-0.05689,0.14625,0.01351,-0.17761,0.0366,-0.1486,0.15395,0.01101,-0.11954,0.14434,-0.07885,0.17644,-0.01763,0.07407,-0.079,-0.03308,0.22401],[-0.09927,0.05841,-0.27215,-0.06774,-0.0593,0.00641,0.17655,-0.24365,-0.23589,-0.15551,0.04504,-0.20307,-0.21693,-0.19329,0.10239,-0.08888,-0.10326,-0.04708,0.00262,-0.16002,-0.18124,-0.02472,-0.02603,0.19986,0.03069,0.03029,0.02473,-0.09835,0.0498,-0.01168,0.10876,-0.17843,-0.02016,0.00947,-0.24549,0.07009,-0.13965,-0.01274,-0.05899,0.08551,0.01934,0.07622,-0.02709,0.04177,0.14698,0.24644,-0.27701,-0.10431,0.06021,0.18127,-0.03321,0.3395,-0.13312,0.15804,-0.11547,-0.01956,0.18078,-0.03895,0.12664,-0.07579,0.03158,-0.07288,0.0219,-0.02433],[-0.01107,-0.06014,-0.10538,-0.06834,-0.18873,0.1375,0.27751,-0.17981,0.00823,0.13814,-0.11612,0.1327,-0.11159,-0.24615,0.08687,0.21574,-0.1976,-0.12805,0.06872,-0.0618,-0.0895,-0.02415,0.06409,0.07992,0.07812,-0.07429,0.40054,-0.07083,-0.03578,0.17121,0.13202,-0.05582,0.19163,-0.03604,-0.06945,0.09133,-0.22683,0.0171,0.13364,-0.03815,0.08218,0.18827,0.10406,-0.18809,0.30759,-0.06063,0.14132,-0.08705,0.12958,0.1077,0.16887,-0.16151,0.01657,-0.03535,0.09448,-0.13316,0.15229,0.07307,-0.15582,0.07032,-0.06342,-0.04729,0.03816,0.22712],[-0.07824,-0.27248,0.02804,-0.12216,-0.11919,-0.26697,-0.20037,0.14859,0.13352,-0.03495,-0.199,-0.09769,-0.01123,-0.08764,0.09793,-0.04783,-0.01273,0.01745,0.20702,-0.11361,-0.05112,-0.13924,-0.01985,-0.06979,0.06449,0.0085,-0.17,0.04689,0.11037,-0.14308,0.152,-0.22883,-0.05091,0.05366,0.20475,-0.04562,-0.11434,-0.05103,0.20026,0.21802,-0.14518,0.04799,-0.11916,-0.08321,0.07959,-0.14558,0.11641,0.10412,-0.03088,-0.12396,0.04649,0.114,0.18915,-0.00741,-0.08141,-0.04963,0.11653,0.01029,0.02822,-0.11493,-0.11421,-0.13213,-0.25177,-0.00762],[-0.14398,-0.09139,-0.15041,-0.03378,-0.21827,0.25726,0.13827,0.02657,-0.21388,-0.17782,0.04799,-0.04452,-0.08198,-0.00578,0.17715,-0.05429,-0.03513,0.00164,0.1223,-0.19132,-0.17487,0.09312,-0.03403,0.07549,0.10841,-0.34299,-0.23031,-0.18269,0.14278,0.07458,0.11515,-0.13792,-0.12189,-0.09054,-0.32219,-0.00412,0.04273,-0.25442,0.13139,0.09317,0.05341,-0.19577,0.08513,-0.01438,0.09911,0.05326,-0.09805,-0.04484,-0.01734,-0.1111,-0.13139,0.11724,-0.06643,0.04114,0.0108,-0.01882,0.22612,-0.0386,-0.03813,-0.13802,0.09893,-0.15406,0.06491,0.0311],[0.16316,0.18743,0.04926,0.04239,-0.01122,-0.14334,-0.15432,0.20212,0.03887,-0.08336,-0.13991,0.08538,0.23434,-0.11496,-0.06497,-0.07792,-0.04509,0.17987,0.04299,0.12503,0.01862,-0.04328,0.20398,-0.17716,0.07639,0.02906,-0.17506,0.06035,-0.12958,-0.16911,-0.0849,-0.02772,0.21328,-0.21613,-0.09328,0.09705,0.18792,-0.02734,-0.24318,-0.03174,0.05433,-0.15118,-0.26531,-0.08078,-0.18865,-0.15984,0.32813,-0.05936,0.15329,-0.07012,0.17184,0.0473,0.01522,-0.09467,-0.04316,0.03317,-0.0968,-0.26311,0.17048,-0.12678,-0.25006,-0.05799,-0.01595,-0.0734],[0.21929,-0.01261,-0.0335,0.00681,-0.14145,-0.11822,-0.15257,-0.16626,0.0118,-0.11619,-0.09012,-0.1515,0.09464,-0.01709,0.17803,-0.10616,-0.18101,-0.10845,0.0877,0.08887,-0.04659,0.11008,0.00576,-0.15093,-0.0037,-0.19882,0.09018,0.13326,-0.05424,0.01901,-0.08086,0.19614,-0.12852,0.11555,-0.04706,0.015,0.0377,0.01076,0.1347,0.02983,-0.06353,0.17157,-0.05673,0.01609,0.08157,0.13841,0.13341,-0.01829,-0.10269,0.11429,-0.0196,0.06643,-0.10143,0.00713,0.01582,0.0517,-0.09573,-0.1087,-0.09486,-0.07364,-0.04469,-0.02075,0.10666,0.04094],[-0.2695,0.09349,-0.01531,-0.1136,-0.07206,-0.06259,0.01526,-0.06529,0.00356,0.12102,-0.12104,0.00644,0.2307,-0.0944,0.21794,-0.0056,0.2453,0.08739,0.1618,-0.26609,-0.02705,0.06277,-0.04441,0.05903,-0.09328,-0.03289,0.14115,0.09844,-0.1304,-0.00369,0.16727,-0.12484,0.07204,0.00686,0.17215,0.27316,0.09543,-0.10145,-0.24346,-0.18558,0.15638,0.05673,0.10202,0.16082,-0.01039,0.11343,0.16302,